{"learner":{"attributes":{"scikit_learn":"{\"_estimator_type\": \"regressor\"}"},"feature_names":[],"feature_types":[],"gradient_booster":{"model":{"gbtree_model_param":{"num_parallel_tree":"1","num_trees":"100"},"iteration_indptr":[0,1,2,3,4,5,6,7,8,9,10,11,12,13,14,15,16,17,18,19,20,21,22,23,24,25,26,27,28,29,30,31,32,33,34,35,36,37,38,39,40,41,42,43,44,45,46,47,48,49,50,51,52,53,54,55,56,57,58,59,60,61,62,63,64,65,66,67,68,69,70,71,72,73,74,75,76,77,78,79,80,81,82,83,84,85,86,87,88,89,90,91,92,93,94,95,96,97,98,99,100],"tree_info":[0,0,0,0,0,0,0,0,0,0,0,0,0,0,0,0,0,0,0,0,0,0,0,0,0,0,0,0,0,0,0,0,0,0,0,0,0,0,0,0,0,0,0,0,0,0,0,0,0,0,0,0,0,0,0,0,0,0,0,0,0,0,0,0,0,0,0,0,0,0,0,0,0,0,0,0,0,0,0,0,0,0,0,0,0,0,0,0,0,0,0,0,0,0,0,0,0,0,0,0],"trees":[{"base_weights":[-2.3576325E-4,-3.0972773E3,1.4887875E3,-1.0968494E3,-1.8888612E3,4.1862903E2,2.4583848E3,-6.414411E2,-3.357568E2,-2.0934346E2,9.0269135E2,1.9949224E3,3.3833225E3,-3.7114224E2,8.034636E1,6.1541675E2,3.5676688E2,5.182466E2,6.7932635E2,8.858019E2,1.2310948E3,-1.8093637E2,-2.5455853E2,-1.8378246E1,6.7814964E1,1.363651E2,2.1244255E2,-9.128003E1,-5.763672E1,-2.1956337E1,9.935809E0],"categories":[],"categories_nodes":[],"categories_segments":[],"categories_sizes":[],"default_left":[0,0,0,0,0,0,0,0,0,0,0,0,0,0,0,0,0,0,0,0,0,0,0,0,0,0,0,0,0,0,0],"id":0,"left_children":[1,3,5,-1,7,9,11,-1,-1,13,15,17,19,21,23,25,-1,-1,-1,-1,-1,-1,27,29,-1,-1,-1,-1,-1,-1,-1],"loss_changes":[2.8266583E9,1.2749222E8,4.2854656E8,0E0,1.0077936E7,6.0376576E7,8.627277E7,0E0,0E0,4.1076362E6,8.487224E6,6.683008E6,9.908096E6,1.360989E6,4.6445912E5,5.43262E5,0E0,0E0,0E0,0E0,0E0,0E0,6.25835E4,5.8875145E4,0E0,0E0,0E0,0E0,0E0,0E0,0E0],"parents":[2147483647,0,0,1,1,2,2,4,4,5,5,6,6,9,9,10,10,11,11,12,12,13,13,14,14,15,15,22,22,23,23],"right_children":[2,4,6,-1,8,10,12,-1,-1,14,16,18,20,22,24,26,-1,-1,-1,-1,-1,-1,28,30,-1,-1,-1,-1,-1,-1,-1],"split_conditions":[-3.2219428E-1,-1.07305E0,5.8239883E-1,-1.0968494E3,-6.8412715E-1,1.5313293E-1,1.1012996E0,-6.414411E2,-3.357568E2,-4.363014E-2,3.68772E-1,8.195063E-1,1.5038241E0,-1.6694058E-1,5.6515906E-2,2.4505591E-1,3.5676688E2,5.182466E2,6.7932635E2,8.858019E2,1.2310948E3,-1.8093637E2,-1.009213E-1,-4.507697E-3,6.7814964E1,1.363651E2,2.1244255E2,-9.128003E1,-5.763672E1,-2.1956337E1,9.935809E0],"split_indices":[3,3,3,0,3,3,3,0,0,3,3,3,3,3,3,3,0,0,0,0,0,0,3,3,0,0,0,0,0,0,0],"split_type":[0,0,0,0,0,0,0,0,0,0,0,0,0,0,0,0,0,0,0,0,0,0,0,0,0,0,0,0,0,0,0],"sum_hessian":[6.11E2,1.98E2,4.13E2,1.34E2,6.4E1,1.97E2,2.16E2,4.7E1,1.7E1,8.6E1,1.11E2,1.46E2,7E1,5.5E1,3.1E1,5.7E1,5.4E1,7.7E1,6.9E1,4.7E1,2.3E1,1.7E1,3.8E1,1.9E1,1.2E1,2.3E1,3.4E1,1.9E1,1.9E1,9E0,1E1],"tree_param":{"num_deleted":"0","num_feature":"14","num_nodes":"31","size_leaf_vector":"1"}},{"base_weights":[2.7318428E0,-2.1954841E3,1.0437074E3,-7.756975E2,-1.3818715E3,3.0333344E2,1.7547119E3,-4.7714273E2,-9.22721E2,-1.4027284E2,6.657409E2,1.500817E3,7.990779E2,-2.994062E2,-1.6291064E2,-2.8357706E2,6.541959E1,4.608362E2,2.5982263E2,3.9067963E2,5.483243E2,-1.3816992E2,-1.9915666E2,-2.4588781E1,1.8334743E2,1.0805936E2,1.6106091E2,-7.3685616E1,-4.5626907E1,-1.916526E1,7.225981E0,2.4086544E1,6.2664555E1],"categories":[],"categories_nodes":[],"categories_segments":[],"categories_sizes":[],"default_left":[0,0,0,0,0,0,0,0,0,0,0,0,0,0,0,0,0,0,0,0,0,0,0,0,0,0,0,0,0,0,0,0,0],"id":1,"left_children":[1,3,5,-1,7,9,11,-1,13,15,17,19,-1,-1,-1,21,23,25,-1,-1,-1,-1,27,29,31,-1,-1,-1,-1,-1,-1,-1,-1],"loss_changes":[1.4027244E9,5.896467E7,2.1845398E8,0E0,4.853968E6,3.3050468E7,4.492365E7,0E0,1.15614E5,2.7598745E6,4.239472E6,8.525088E6,0E0,0E0,0E0,7.30058E5,4.1847353E5,2.5043E5,0E0,0E0,0E0,0E0,4.7930125E4,4.5531305E4,2.79655E4,0E0,0E0,0E0,0E0,0E0,0E0,0E0,0E0],"parents":[2147483647,0,0,1,1,2,2,4,4,5,5,6,6,8,8,9,9,10,10,11,11,15,15,16,16,17,17,22,22,23,23,24,24],"right_children":[2,4,6,-1,8,10,12,-1,14,16,18,20,-1,-1,-1,22,24,26,-1,-1,-1,-1,28,30,32,-1,-1,-1,-1,-1,-1,-1,-1],"split_conditions":[-3.525834E-1,-1.1933453E0,6.299681E-1,-7.756975E2,-7.6901305E-1,1.6636246E-1,1.2320976E0,-4.7714273E2,-4.3936658E-1,-6.566705E-2,4.2774484E-1,9.2129767E-1,7.990779E2,-2.994062E2,-1.6291064E2,-2.1756E-1,5.6515906E-2,2.7066675E-1,2.5982263E2,3.9067963E2,5.483243E2,-1.3816992E2,-1.1698615E-1,-4.507697E-3,8.309893E-2,1.0805936E2,1.6106091E2,-7.3685616E1,-4.5626907E1,-1.916526E1,7.225981E0,2.4086544E1,6.2664555E1],"split_indices":[3,1,3,0,3,3,3,0,3,3,3,3,0,0,0,3,3,3,0,0,0,0,3,3,3,0,0,0,0,0,0,0,0],"split_type":[0,0,0,0,0,0,0,0,0,0,0,0,0,0,0,0,0,0,0,0,0,0,0,0,0,0,0,0,0,0,0,0,0],"sum_hessian":[6.11E2,1.96E2,4.15E2,1.31E2,6.5E1,2.04E2,2.11E2,4.3E1,2.2E1,9.2E1,1.12E2,1.67E2,4.4E1,1.7E1,5E0,5.4E1,3.8E1,5.7E1,5.5E1,1.07E2,6E1,1.6E1,3.8E1,2.2E1,1.6E1,2.7E1,3E1,1.7E1,2.1E1,1.2E1,1E1,4E0,1.2E1],"tree_param":{"num_deleted":"0","num_feature":"14","num_nodes":"33","size_leaf_vector":"1"}},{"base_weights":[2.5154989E0,-1.5067065E3,7.552753E2,-1.8088676E3,-9.02443E2,2.8463245E2,1.2962551E3,-6.076974E2,-4.857791E2,-1.0496697E3,-1.4456784E2,-4.4920025E1,5.3545166E2,1.124352E3,2.0003862E3,-3.4318683E2,-2.439775E2,-1.41672E2,1.3567686E2,3.7512698E2,2.0192656E2,2.9499088E2,4.0684436E2,5.011368E2,7.19859E2,-7.371437E1,-9.116009E1,5.8421387E1,5.605039E1,9.163709E1,1.3172066E2,-3.670812E1,-1.4280513E1,8.923975E0,2.3938057E1],"categories":[],"categories_nodes":[],"categories_segments":[],"categories_sizes":[],"default_left":[0,0,0,0,0,0,0,0,0,0,0,0,0,0,0,0,0,0,0,0,0,0,0,0,0,0,0,0,0,0,0,0,0,0,0],"id":2,"left_children":[1,3,5,7,9,11,13,-1,-1,15,-1,17,19,21,23,-1,-1,25,27,29,-1,-1,-1,-1,-1,-1,31,33,-1,-1,-1,-1,-1,-1,-1],"loss_changes":[6.9642E8,3.561488E7,1.0376582E8,2.269024E6,3.8283E6,1.8208836E7,2.0748896E7,0E0,0E0,2.0648E5,0E0,1.6966396E6,2.505824E6,3.73416E6,7.32512E5,0E0,0E0,3.0869E5,1.2346025E5,1.33173E5,0E0,0E0,0E0,0E0,0E0,0E0,5.3972938E4,6.819039E3,0E0,0E0,0E0,0E0,0E0,0E0,0E0],"parents":[2147483647,0,0,1,1,2,2,3,3,4,4,5,5,6,6,9,9,11,11,12,12,13,13,14,14,17,17,18,18,19,19,26,26,27,27],"right_children":[2,4,6,8,10,12,14,-1,-1,16,-1,18,20,22,24,-1,-1,26,28,30,-1,-1,-1,-1,-1,-1,32,34,-1,-1,-1,-1,-1,-1,-1],"split_conditions":[-2.7068594E-1,-1.1066859E0,6.969752E-1,-1.5102817E0,-5.4374814E-1,2.0029019E-1,1.3322865E0,-6.076974E2,-4.857791E2,-8.5930187E-1,-1.4456784E2,1.1099597E-2,4.7181466E-1,9.8420596E-1,1.7524425E0,-3.4318683E2,-2.439775E2,-1.2882048E-1,1.1900717E-1,3.0553713E-1,2.0192656E2,2.9499088E2,4.0684436E2,5.011368E2,7.19859E2,-7.371437E1,-7.537694E-2,5.6515906E-2,5.605039E1,9.163709E1,1.3172066E2,-3.670812E1,-1.4280513E1,8.923975E0,2.3938057E1],"split_indices":[3,9,3,3,3,3,3,0,0,3,0,3,3,3,3,0,0,3,3,3,0,0,0,0,0,0,3,3,0,0,0,0,0,0,0],"split_type":[0,0,0,0,0,0,0,0,0,0,0,0,0,0,0,0,0,0,0,0,0,0,0,0,0,0,0,0,0,0,0,0,0,0,0],"sum_hessian":[6.11E2,2.03E2,4.08E2,1.34E2,6.9E1,2.19E2,1.89E2,5.8E1,7.6E1,5E1,1.9E1,9.5E1,1.24E2,1.54E2,3.5E1,3.3E1,1.7E1,6.2E1,3.3E1,5.9E1,6.5E1,9.9E1,5.5E1,2.2E1,1.3E1,1.9E1,4.3E1,1.4E1,1.9E1,3.1E1,2.8E1,2.4E1,1.9E1,7E0,7E0],"tree_param":{"num_deleted":"0","num_feature":"14","num_nodes":"35","size_leaf_vector":"1"}},{"base_weights":[2.5566869E0,-1.1042909E3,5.15029E2,-1.3065491E3,-7.434293E2,9.221056E1,8.361967E2,-4.2040622E2,-3.4043256E2,-2.5965637E2,-5.637669E2,-1.04024124E2,2.577813E2,6.396291E2,1.176181E3,-1.783275E2,-9.9553276E1,-2.2005545E2,-4.8216022E1,1.7388478E2,9.999998E1,1.5894972E2,2.2402596E2,3.0824054E2,4.9395343E2,-7.484064E1,-4.3531776E1,-8.003742E1,1.624651E1,1.1347325E2,6.072971E1,-2.8404743E1,-1.6654636E1,-1.158039E0,1.1021748E1,3.5182583E1,7.3258305E0],"categories":[],"categories_nodes":[],"categories_segments":[],"categories_sizes":[],"default_left":[0,0,0,0,0,0,0,0,0,0,0,0,0,0,0,0,0,0,0,0,0,0,0,0,0,0,0,0,0,0,0,0,0,0,0,0,0],"id":3,"left_children":[1,3,5,7,9,11,13,-1,-1,-1,15,17,19,21,23,-1,-1,25,27,29,-1,-1,-1,-1,-1,-1,-1,31,33,35,-1,-1,-1,-1,-1,-1,-1],"loss_changes":[3.4771274E8,1.3188176E7,5.682125E7,4.12832E5,1.091392E6,5.9401265E6,1.51532E7,0E0,0E0,0E0,3.0274E4,5.333309E5,5.69555E5,1.403916E6,4.323456E6,0E0,0E0,2.33225E4,1.2027503E5,6.1534875E4,0E0,0E0,0E0,0E0,0E0,0E0,0E0,8.7495625E3,8.382584E3,3.23075E3,0E0,0E0,0E0,0E0,0E0,0E0,0E0],"parents":[2147483647,0,0,1,1,2,2,3,3,4,4,5,5,6,6,10,10,11,11,12,12,13,13,14,14,17,17,18,18,19,19,27,27,28,28,29,29],"right_children":[2,4,6,8,10,12,14,-1,-1,-1,16,18,20,22,24,-1,-1,26,28,30,-1,-1,-1,-1,-1,-1,-1,32,34,36,-1,-1,-1,-1,-1,-1,-1],"split_conditions":[-4.2303082E-1,-1.3778125E0,5.2464974E-1,-1.4815271E0,-8.9125067E-1,8.309893E-2,1.041387E0,-4.2040622E2,-3.4043256E2,-2.5965637E2,-5.1608413E-1,-1.4651947E-1,2.961083E-1,7.522002E-1,1.5855138E0,-1.783275E2,-9.9553276E1,-2.3386899E-1,-3.3468094E-2,1.9161937E-1,9.999998E1,1.5894972E2,2.2402596E2,3.0824054E2,4.9395343E2,-7.484064E1,-4.3531776E1,-8.7665424E-2,1.896453E-2,2.8550315E-1,6.072971E1,-2.8404743E1,-1.6654636E1,-1.158039E0,1.1021748E1,3.5182583E1,7.3258305E0],"split_indices":[3,3,3,3,3,3,3,0,0,0,3,3,3,3,3,0,0,3,3,3,0,0,0,0,0,0,0,3,3,0,0,0,0,0,0,0,0],"split_type":[0,0,0,0,0,0,0,0,0,0,0,0,0,0,0,0,0,0,0,0,0,0,0,0,0,0,0,0,0,0,0,0,0,0,0,0,0],"sum_hessian":[6.11E2,1.93E2,4.18E2,1.22E2,7.1E1,1.81E2,2.37E2,7.4E1,4.8E1,4E1,3.1E1,8.3E1,9.8E1,1.52E2,8.5E1,2.6E1,5E0,2.6E1,5.7E1,4.8E1,5E1,7.8E1,7.4E1,6.7E1,1.8E1,1.7E1,9E0,3.8E1,1.9E1,1.7E1,3.1E1,2.2E1,1.6E1,1E1,9E0,1.6E1,1E0],"tree_param":{"num_deleted":"0","num_feature":"14","num_nodes":"37","size_leaf_vector":"1"}},{"base_weights":[1.6858182E0,-7.458706E2,3.8005176E2,-8.8352625E2,-3.961832E2,1.6306499E2,6.785653E2,-2.8894498E2,-2.1442834E2,-1.4151941E2,-2.334161E2,-1.238046E1,2.868494E2,5.851933E2,1.081368E3,-8.055073E1,-4.7040237E1,-7.475758E1,6.7289986E1,1.9742982E2,1.062747E2,1.3994974E2,1.9358507E2,2.7259155E2,4.0597092E2,-3.778307E1,-5.469694E1,1.7912252E1,9.4866104E1,4.7071976E1,6.785611E1,-1.9985813E1,-1.0529786E1,1.8062402E0,9.161262E0,2.9052643E1,6.226978E0],"categories":[],"categories_nodes":[],"categories_segments":[],"categories_sizes":[],"default_left":[0,0,0,0,0,0,0,0,0,0,0,0,0,0,0,0,0,0,0,0,0,0,0,0,0,0,0,0,0,0,0,0,0,0,0,0,0],"id":4,"left_children":[1,3,5,7,9,11,13,-1,-1,-1,15,17,19,21,23,-1,-1,25,27,29,-1,-1,-1,-1,-1,-1,31,33,35,-1,-1,-1,-1,-1,-1,-1,-1],"loss_changes":[1.733876E8,9.566064E6,2.6252156E7,1.286928E6,6.27695E5,5.150578E6,5.798584E6,0E0,0E0,0E0,1.434975E4,4.9702212E5,7.67791E5,7.04636E5,2.26144E5,0E0,0E0,5.0613406E4,5.8213188E4,3.676025E4,0E0,0E0,0E0,0E0,0E0,0E0,7.475086E3,2.3684E3,2.0902656E3,0E0,0E0,0E0,0E0,0E0,0E0,0E0,0E0],"parents":[2147483647,0,0,1,1,2,2,3,3,4,4,5,5,6,6,10,10,11,11,12,12,13,13,14,14,17,17,18,18,19,19,26,26,27,27,28,28],"right_children":[2,4,6,8,10,12,14,-1,-1,-1,16,18,20,22,24,-1,-1,26,28,30,-1,-1,-1,-1,-1,-1,32,34,36,-1,-1,-1,-1,-1,-1,-1,-1],"split_conditions":[-2.6387662E-1,-9.426231E-1,7.3141336E-1,-1.4388767E0,-5.201677E-1,2.220039E-1,1.3699563E0,-2.8894498E2,-2.1442834E2,-1.4151941E2,-3.125914E-1,-2.2979451E-2,4.9131268E-1,8.7722665E-1,1.8141981E0,-8.055073E1,-4.7040237E1,-1.4651947E-1,8.309893E-2,3.227175E-1,1.062747E2,1.3994974E2,1.9358507E2,2.7259155E2,4.0597092E2,-3.778307E1,-8.501237E-2,2.4461081E-2,2.9091096E-1,4.7071976E1,6.785611E1,-1.9985813E1,-1.0529786E1,1.8062402E0,9.161262E0,2.9052643E1,6.226978E0],"split_indices":[3,3,3,3,1,3,3,0,0,0,1,3,3,3,3,0,0,3,3,3,0,0,0,0,0,0,3,3,0,0,0,0,0,0,0,0,0],"split_type":[0,0,0,0,0,0,0,0,0,0,0,0,0,0,0,0,0,0,0,0,0,0,0,0,0,0,0,0,0,0,0,0,0,0,0,0,0],"sum_hessian":[6.11E2,2.05E2,4.06E2,1.46E2,5.9E1,2.36E2,1.7E2,9.6E1,5E1,3.9E1,2E1,9.8E1,1.38E2,1.4E2,3E1,1.2E1,8E0,5.5E1,4.3E1,6.1E1,7.7E1,5E1,9E1,2.1E1,9E0,1.4E1,4.1E1,1.6E1,2.7E1,2.8E1,3.3E1,2.4E1,1.7E1,9E0,7E0,2.6E1,1E0],"tree_param":{"num_deleted":"0","num_feature":"14","num_nodes":"37","size_leaf_vector":"1"}},{"base_weights":[1.896991E0,-5.221183E2,2.710162E2,-6.367009E2,-3.0602676E2,9.46748E1,4.5489496E2,-2.4043962E2,-1.7199011E2,-3.7498123E2,-1.8609808E2,-1.9751884E1,1.7234894E2,3.8350165E2,7.454063E2,-1.135693E2,-3.206155E1,-2.2890266E2,-3.9266087E1,-5.046722E1,3.2697495E1,1.1965244E2,6.5502106E1,9.30345E1,1.3181586E2,1.9543137E2,3.20547E2,-1.9254713E1,-7.082519E1,-7.094752E1,-3.1718067E1,9.137044E0,1.5154403E1,2.71934E1,3.988434E1,-2.616729E1,-1.6284414E1,-1.1072544E1,-3.8492615E0,4.377979E0,2.4498467E-1],"categories":[],"categories_nodes":[],"categories_segments":[],"categories_sizes":[],"default_left":[0,0,0,0,0,0,0,0,0,0,0,0,0,0,0,0,0,0,0,0,0,0,0,0,0,0,0,0,0,0,0,0,0,0,0,0,0,0,0,0,0],"id":5,"left_children":[1,3,5,7,9,11,13,-1,-1,15,17,19,21,23,25,-1,-1,27,-1,29,31,33,-1,-1,-1,-1,-1,-1,-1,35,37,39,-1,-1,-1,-1,-1,-1,-1,-1,-1],"loss_changes":[8.644732E7,4.955304E6,1.3089238E7,9.50748E5,5.421685E5,1.8521069E6,3.820768E6,0E0,0E0,3.732E3,3.8575E4,1.3858517E5,2.7439975E5,5.24032E5,4.57614E5,0E0,0E0,2.5911875E3,0E0,1.8485047E4,1.2971434E4,1.1089125E4,0E0,0E0,0E0,0E0,0E0,0E0,0E0,2.0471328E3,2.4674023E3,6.690537E2,0E0,0E0,0E0,0E0,0E0,0E0,0E0,0E0,0E0],"parents":[2147483647,0,0,1,1,2,2,3,3,4,4,5,5,6,6,9,9,10,10,11,11,12,12,13,13,14,14,17,17,19,19,20,20,21,21,29,29,30,30,31,31],"right_children":[2,4,6,8,10,12,14,-1,-1,16,18,20,22,24,26,-1,-1,28,-1,30,32,34,-1,-1,-1,-1,-1,-1,-1,36,38,40,-1,-1,-1,-1,-1,-1,-1,-1,-1],"split_conditions":[-2.6042426E-1,-1.0707704E0,6.7801774E-1,-1.584134E0,-7.058281E-1,1.838189E-1,1.2927314E0,-2.4043962E2,-1.7199011E2,-5.4374814E-1,-4.2303082E-1,-2.2979451E-2,4.4234562E-1,8.6220145E-1,1.8241895E0,-1.135693E2,-3.206155E1,-9.922935E-1,-3.9266087E1,-1.0856585E-1,7.1772255E-2,2.6220512E-1,6.5502106E1,9.30345E1,1.3181586E2,1.9543137E2,3.20547E2,-1.9254713E1,-7.082519E1,-1.5834562E-1,-4.363014E-2,-3.6498815E-2,1.5154403E1,2.71934E1,3.988434E1,-2.616729E1,-1.6284414E1,-1.1072544E1,-3.8492615E0,4.377979E0,2.4498467E-1],"split_indices":[3,0,3,3,2,3,3,0,0,3,3,3,3,3,3,0,0,6,0,3,3,3,0,0,0,0,0,0,0,3,3,11,0,0,0,0,0,0,0,0,0],"split_type":[0,0,0,0,0,0,0,0,0,0,0,0,0,0,0,0,0,0,0,0,0,0,0,0,0,0,0,0,0,0,0,0,0,0,0,0,0,0,0,0,0],"sum_hessian":[6.11E2,2.07E2,4.04E2,1.34E2,7.3E1,2.07E2,1.97E2,3.4E1,1E2,4.5E1,2.8E1,8.4E1,1.23E2,1.6E2,3.7E1,4.4E1,1E0,1.4E1,1.4E1,5.3E1,3.1E1,5.9E1,6.4E1,7.2E1,8.8E1,3.1E1,6E0,1E0,1.3E1,2.4E1,2.9E1,1.4E1,1.7E1,2.1E1,3.8E1,1E1,1.4E1,2.2E1,7E0,8E0,6E0],"tree_param":{"num_deleted":"0","num_feature":"14","num_nodes":"41","size_leaf_vector":"1"}},{"base_weights":[1.5705119E0,-3.649133E2,1.9392503E2,-4.3694498E2,-1.806232E2,9.381449E1,3.5796332E2,-1.8193488E2,-4.0013742E2,-6.463448E1,-2.9537813E1,1.8577066E1,1.6712837E2,3.2109335E2,2.0953824E2,-1.2844518E2,-9.778503E1,-2.423958E1,6.389682E1,3.4442352E1,5.5735508E1,7.725439E1,1.1402551E2,-3.5606373E1,3.1160157E0,4.302514E1,2.3451664E1,-1.3673909E1,-7.369501E0,-9.20166E-1,3.304232E0,7.2188783E0,1.4537629E1],"categories":[],"categories_nodes":[],"categories_segments":[],"categories_sizes":[],"default_left":[0,0,0,0,0,0,0,0,0,0,0,0,0,0,0,0,0,0,0,0,0,0,0,0,0,0,0,0,0,0,0,0,0],"id":6,"left_children":[1,3,5,7,9,11,13,-1,15,-1,-1,17,19,21,-1,-1,-1,23,25,-1,-1,-1,-1,27,29,31,-1,-1,-1,-1,-1,-1,-1],"loss_changes":[4.3213596E7,2.722044E6,6.568045E6,6.99436E5,1.5333012E5,1.3813982E6,1.683958E6,0E0,1.24376E5,0E0,0E0,2.4410383E5,1.0263825E5,4.23458E5,0E0,0E0,0E0,2.0322398E4,1.4811672E4,0E0,0E0,0E0,0E0,3.9458125E3,1.0104978E3,1.6158516E3,0E0,0E0,0E0,0E0,0E0,0E0,0E0],"parents":[2147483647,0,0,1,1,2,2,3,3,4,4,5,5,6,6,8,8,11,11,12,12,13,13,17,17,18,18,23,23,24,24,25,25],"right_children":[2,4,6,8,10,12,14,-1,16,-1,-1,18,20,22,-1,-1,-1,24,26,-1,-1,-1,-1,28,30,32,-1,-1,-1,-1,-1,-1,-1],"split_conditions":[-2.3386899E-1,-9.3169385E-1,7.7978677E-1,-1.6028677E0,-4.9244332E-1,3.3381242E-1,1.7524425E0,-1.8193488E2,-1.4128563E0,-6.463448E1,-2.9537813E1,7.1772255E-2,5.075229E-1,1.0676636E0,2.0953824E2,-1.2844518E2,-9.778503E1,-3.8372546E-2,2.1372135E-1,3.4442352E1,5.5735508E1,7.725439E1,1.1402551E2,-1.0738337E-1,5.0692804E-2,1.2690344E-1,2.3451664E1,-1.3673909E1,-7.369501E0,-9.20166E-1,3.304232E0,7.2188783E0,1.4537629E1],"split_indices":[3,3,3,3,2,3,3,0,3,0,0,3,3,3,0,0,0,3,3,0,0,0,0,8,2,3,0,0,0,0,0,0,0],"split_type":[0,0,0,0,0,0,0,0,0,0,0,0,0,0,0,0,0,0,0,0,0,0,0,0,0,0,0,0,0,0,0,0,0],"sum_hessian":[6.11E2,2.1E2,4.01E2,1.5E2,6E1,2.5E2,1.51E2,2.4E1,1.26E2,4.1E1,1.9E1,1.24E2,1.26E2,1.38E2,1.3E1,8.8E1,3.8E1,6.4E1,6E1,3.5E1,9.1E1,6.9E1,6.9E1,4.5E1,1.9E1,2.6E1,3.4E1,2.2E1,2.3E1,1.1E1,8E0,7E0,1.9E1],"tree_param":{"num_deleted":"0","num_feature":"14","num_nodes":"33","size_leaf_vector":"1"}},{"base_weights":[1.1242923E0,-2.578201E2,1.3703508E2,-3.0703708E2,-1.2269532E2,5.646815E1,2.4016951E2,-3.9256018E2,-2.6460623E2,-5.249233E1,-9.4795364E1,-3.1497252E0,9.5656166E1,2.0263835E2,4.2342615E2,-1.3757674E2,-1.02945435E2,-8.442887E1,-6.854654E1,-1.1004134E2,-5.8621304E1,-2.155425E1,2.556703E1,6.8500336E1,1.206696E2,5.045624E1,2.3862381E2,1.0481097E2,2.127067E2,-1.6468946E1,-1.1724495E2,-1.9408657E1,-4.435205E0,-3.0788103E1,-1.1220825E1,1.2006543E1,3.365068E1,5.5390526E1,2.3994307E1,2.832163E1,3.8193817E1,7.2097565E1,1.8184278E1,-4.0489456E1,-2.5693388E1,-1.046467E1,-5.3442707E0,-4.5785403E0,-1.0764737E0,4.1617904E0,-2.4609376E-2,1.8769776E0,1.0397168E1,1.719391E1,7.8488526E0],"categories":[],"categories_nodes":[],"categories_segments":[],"categories_sizes":[],"default_left":[0,0,0,0,0,0,0,0,0,0,0,0,0,0,0,0,0,0,0,0,0,0,0,0,0,0,0,0,0,0,0,0,0,0,0,0,0,0,0,0,0,0,0,0,0,0,0,0,0,0,0,0,0,0,0],"id":7,"left_children":[1,3,5,7,9,11,13,15,17,-1,19,21,23,25,27,-1,-1,-1,-1,29,31,33,35,37,39,-1,41,-1,-1,-1,43,-1,-1,45,47,49,51,53,-1,-1,-1,-1,-1,-1,-1,-1,-1,-1,-1,-1,-1,-1,-1,-1,-1],"loss_changes":[2.157365E7,1.365569E6,3.326747E6,4.54965E5,6.801119E4,5.3064275E5,1.124696E6,2.492E3,1.045E2,0E0,1.5609594E4,4.8646242E4,8.4792875E4,1.43346E5,3.656445E5,0E0,0E0,0E0,0E0,4.2891875E3,2.7714219E3,4.9979023E3,3.5422266E3,5.8044688E3,1.9425E2,0E0,6.63375E3,0E0,0E0,0E0,1.3199375E3,0E0,0E0,9.189844E2,8.088425E2,3.3951367E2,3.897793E2,4.671875E2,0E0,0E0,0E0,0E0,0E0,0E0,0E0,0E0,0E0,0E0,0E0,0E0,0E0,0E0,0E0,0E0,0E0],"parents":[2147483647,0,0,1,1,2,2,3,3,4,4,5,5,6,6,7,7,8,8,10,10,11,11,12,12,13,13,14,14,19,19,20,20,21,21,22,22,23,23,24,24,26,26,30,30,33,33,34,34,35,35,36,36,37,37],"right_children":[2,4,6,8,10,12,14,16,18,-1,20,22,24,26,28,-1,-1,-1,-1,30,32,34,36,38,40,-1,42,-1,-1,-1,44,-1,-1,46,48,50,52,54,-1,-1,-1,-1,-1,-1,-1,-1,-1,-1,-1,-1,-1,-1,-1,-1,-1],"split_conditions":[-2.3386899E-1,-9.2281264E-1,7.232366E-1,-1.560594E0,-1.0124966E0,2.1372135E-1,1.3864974E0,-1.6421244E0,-1.4014469E0,-5.249233E1,-3.125914E-1,1.1099597E-2,4.9848413E-1,9.566429E-1,1.9548339E0,-1.3757674E2,-1.02945435E2,-8.442887E1,-6.854654E1,-9.1546124E-1,-3.1476957E-1,-9.377044E-2,1.1900717E-1,3.3381242E-1,5.3803355E-1,5.045624E1,2.134816E0,1.0481097E2,2.127067E2,-1.6468946E1,1.1011698E0,-1.9408657E1,-4.435205E0,-9.201654E-2,-3.8372546E-2,3.8985464E-1,-8.890084E-1,1.0524515E0,2.3994307E1,2.832163E1,3.8193817E1,7.2097565E1,1.8184278E1,-4.0489456E1,-2.5693388E1,-1.046467E1,-5.3442707E0,-4.5785403E0,-1.0764737E0,4.1617904E0,-2.4609376E-2,1.8769776E0,1.0397168E1,1.719391E1,7.8488526E0],"split_indices":[3,3,3,3,7,3,3,3,3,0,1,3,3,1,3,0,0,0,0,7,10,3,3,3,3,0,4,0,0,0,4,0,0,0,3,10,11,6,0,0,0,0,0,0,0,0,0,0,0,0,0,0,0,0,0],"split_type":[0,0,0,0,0,0,0,0,0,0,0,0,0,0,0,0,0,0,0,0,0,0,0,0,0,0,0,0,0,0,0,0,0,0,0,0,0,0,0,0,0,0,0,0,0,0,0,0,0,0,0,0,0,0,0],"sum_hessian":[6.11E2,2.1E2,4.01E2,1.53E2,5.7E1,2.26E2,1.75E2,4.8E1,1.05E2,1.8E1,3.9E1,9E1,1.36E2,1.47E2,2.8E1,1.7E1,3.1E1,6.7E1,3.8E1,2.6E1,1.3E1,5.5E1,3.5E1,6.7E1,6.9E1,7.8E1,6.9E1,2.4E1,4E0,4E0,2.2E1,1.1E1,2E0,2.8E1,2.7E1,1.4E1,2.1E1,3.4E1,3.3E1,1.7E1,5.2E1,6.8E1,1E0,1.2E1,1E1,2E1,8E0,1.7E1,1E1,1.2E1,2E0,1E0,2E1,3.1E1,3E0],"tree_param":{"num_deleted":"0","num_feature":"14","num_nodes":"55","size_leaf_vector":"1"}},{"base_weights":[8.136656E-1,-1.8309256E2,9.733953E1,-2.3992934E2,-1.2452849E2,6.9728294E1,2.5356145E2,-9.6756256E1,-6.509153E1,-4.7087547E1,-7.137425E1,1.9645449E1,1.1189691E2,6.706824E1,1.61657E2,-8.741997E1,-4.9352978E1,-9.855787E0,4.3834457E1,8.868447E1,1.3055406E2,-3.94375E1,-9.855746E1,-9.864258E0,-5.31926E1,-1.8729881E1,3.9482086E0,3.4074524E1,5.610262E1,7.683745E1,2.9623373E1,8.051661E0,1.3132283E2,-1.4228467E1,-4.691211E0,-5.5321293E0,-3.0655647E1,-3.7467775E0,-6.921387E-1,-1.731674E1,-6.8722415E0,-7.979495E0,-3.9851077E0,-4.9544466E-1,3.2901518E0,5.732328E0,1.1456923E1,2.0357273E1,1.4323782E1,2.6754484E1,1.4898396E1,4.0628914E1,2.6975977E1],"categories":[],"categories_nodes":[],"categories_segments":[],"categories_sizes":[],"default_left":[0,0,0,0,0,0,0,0,0,0,0,0,0,0,0,0,0,0,0,0,0,0,0,0,0,0,0,0,0,0,0,0,0,0,0,0,0,0,0,0,0,0,0,0,0,0,0,0,0,0,0,0,0],"id":8,"left_children":[1,3,5,7,9,11,13,-1,-1,-1,15,17,19,-1,-1,21,23,25,27,29,31,33,35,37,39,41,43,45,47,49,-1,-1,51,-1,-1,-1,-1,-1,-1,-1,-1,-1,-1,-1,-1,-1,-1,-1,-1,-1,-1,-1,-1],"loss_changes":[1.0881867E7,6.72455E5,1.7163385E6,1.31009E5,1.7151912E5,7.221915E5,3.9307575E5,0E0,0E0,0E0,1.0526125E4,1.1318171E5,6.89745E4,0E0,0E0,8.4044375E3,2.5077266E3,8.893803E3,8.505391E3,2.6623125E3,4.528375E3,3.994287E2,3.3476719E3,3.069809E1,1.1470977E3,1.532208E3,1.1579288E3,2.4114414E3,3.946797E2,1.0331641E4,0E0,0E0,4.82575E3,0E0,0E0,0E0,0E0,0E0,0E0,0E0,0E0,0E0,0E0,0E0,0E0,0E0,0E0,0E0,0E0,0E0,0E0,0E0,0E0],"parents":[2147483647,0,0,1,1,2,2,3,3,4,4,5,5,6,6,10,10,11,11,12,12,15,15,16,16,17,17,18,18,19,19,20,20,21,21,22,22,23,23,24,24,25,25,26,26,27,27,28,28,29,29,32,32],"right_children":[2,4,6,8,10,12,14,-1,-1,-1,16,18,20,-1,-1,22,24,26,28,30,32,34,36,38,40,42,44,46,48,50,-1,-1,52,-1,-1,-1,-1,-1,-1,-1,-1,-1,-1,-1,-1,-1,-1,-1,-1,-1,-1,-1,-1],"split_conditions":[-2.3386899E-1,-1.4224627E0,1.1571985E0,-1.6285689E0,-8.173607E-1,4.9848413E-1,1.9548339E0,-9.6756256E1,-6.509153E1,-4.7087547E1,-4.9244332E-1,1.2690344E-1,7.980085E-1,6.706824E1,1.61657E2,-7.6901305E-1,-4.0309325E-1,-4.363014E-2,3.227175E-1,6.6557693E-1,-7.8654E-1,-7.899364E-1,-9.763643E-1,-5.369238E-1,-1.1991555E-1,-1.2333411E-1,2.4461081E-2,1.6695255E-1,-4.4634384E-1,5.8239883E-1,2.9623373E1,8.051661E0,1.1012996E0,-1.4228467E1,-4.691211E0,-5.5321293E0,-3.0655647E1,-3.7467775E0,-6.921387E-1,-1.731674E1,-6.8722415E0,-7.979495E0,-3.9851077E0,-4.9544466E-1,3.2901518E0,5.732328E0,1.1456923E1,2.0357273E1,1.4323782E1,2.6754484E1,1.4898396E1,4.0628914E1,2.6975977E1],"split_indices":[3,3,3,3,3,3,3,0,0,0,2,3,2,0,0,3,2,3,3,3,4,3,10,0,10,3,3,2,12,3,0,0,3,0,0,0,0,0,0,0,0,0,0,0,0,0,0,0,0,0,0,0,0],"split_type":[0,0,0,0,0,0,0,0,0,0,0,0,0,0,0,0,0,0,0,0,0,0,0,0,0,0,0,0,0,0,0,0,0,0,0,0,0,0,0,0,0,0,0,0,0,0,0,0,0,0,0,0,0],"sum_hessian":[6.11E2,2.1E2,4.01E2,1.05E2,1.05E2,3.42E2,5.9E1,2E1,8.5E1,6.4E1,4.1E1,1.57E2,1.85E2,5.5E1,4E0,2.2E1,1.9E1,7.1E1,8.6E1,8.5E1,1E2,5E0,1.7E1,2E0,1.7E1,4.3E1,2.8E1,5E1,3.6E1,4.3E1,4.2E1,1E0,9.9E1,3E0,2E0,1E0,1.6E1,1E0,1E0,1.4E1,3E0,1.6E1,2.7E1,1.6E1,1.2E1,1.2E1,3.8E1,1.2E1,2.4E1,2.8E1,1.5E1,8.8E1,1.1E1],"tree_param":{"num_deleted":"0","num_feature":"14","num_nodes":"53","size_leaf_vector":"1"}},{"base_weights":[7.749191E-1,-1.2727527E2,7.044259E1,-1.5379669E2,-5.7363514E1,4.494026E1,1.5947984E2,-2.019612E2,-3.8751686E1,-6.8582756E1,-2.8953459E1,1.278445E1,7.134632E1,1.426973E2,4.0953085E2,-8.540559E1,-5.3985027E1,-2.231713E1,-3.837706E1,-1.1608691E1,-3.2804817E1,-7.7036552E0,2.6778803E1,5.2145267E1,7.936589E1,1.1982157E2,1.819505E2,3.4055714E1,1.3654622E2,-1.5203467E1,-1.0331055E1,-4.447998E-1,-4.1308594E0,-3.5141914E1,-1.2817384E-2,-1.0243005E1,1.874324E0,1.7486515E1,3.4074898E1,5.7471638E1,1.5000488E1,6.878534E1,8.693487E1,8.042822E1,1.2766376E2,1.8541965E2,1.2722169E1,7.951661E-1,-7.391382E0,-1.5021974E-1,-1.1330432E1,-3.4590476E0,-1.1010742E0,9.1685796E-1,-1.8462158E0,3.5960963E0,6.633516E0,1.5505176E1,9.200063E0,1.3727982E1,2.5104404E1,-1.4295411E0,5.551465E0,2.0809387E1,5.7124515E0,1.3605176E1,2.6893316E1,9.0351564E-1,2.6157688E1,3.8734333E1,9.575098E0,1.4836671E1,5.65871E1],"categories":[],"categories_nodes":[],"categories_segments":[],"categories_sizes":[],"default_left":[0,0,0,0,0,0,0,0,0,0,0,0,0,0,0,0,0,0,0,0,0,0,0,0,0,0,0,0,0,0,0,0,0,0,0,0,0,0,0,0,0,0,0,0,0,0,0,0,0,0,0,0,0,0,0,0,0,0,0,0,0,0,0,0,0,0,0,0,0,0,0,0,0],"id":9,"left_children":[1,3,5,7,9,11,13,15,-1,17,19,21,23,25,27,-1,-1,-1,29,31,33,35,37,39,41,43,45,-1,-1,-1,47,-1,-1,49,-1,51,53,55,57,59,61,63,65,67,69,71,-1,-1,-1,-1,-1,-1,-1,-1,-1,-1,-1,-1,-1,-1,-1,-1,-1,-1,-1,-1,-1,-1,-1,-1,-1,-1,-1],"loss_changes":[5.468592E6,3.91676E5,8.942839E5,1.58932E5,1.745739E4,2.6231144E5,3.1085275E5,4.1634E4,0E0,4.6883594E3,8.883955E2,4.0633504E4,2.203875E4,5.362575E4,1.5856375E4,0E0,0E0,0E0,2.5814268E3,8.8987976E1,1.1470225E3,1.4298655E3,5.099129E3,9.623781E3,3.470125E3,7.032375E3,6.1756875E3,0E0,0E0,0E0,8.082097E2,0E0,0E0,1.2547285E3,0E0,3.4684766E2,1.4215836E2,7.269697E2,1.1755664E3,1.0290906E4,6.423108E2,2.3526562E2,3.2583125E3,6.0212188E3,2.129375E3,2.8691875E3,0E0,0E0,0E0,0E0,0E0,0E0,0E0,0E0,0E0,0E0,0E0,0E0,0E0,0E0,0E0,0E0,0E0,0E0,0E0,0E0,0E0,0E0,0E0,0E0,0E0,0E0,0E0],"parents":[2147483647,0,0,1,1,2,2,3,3,4,4,5,5,6,6,7,7,9,9,10,10,11,11,12,12,13,13,14,14,18,18,19,19,20,20,21,21,22,22,23,23,24,24,25,25,26,26,30,30,33,33,35,35,36,36,37,37,38,38,39,39,40,40,41,41,42,42,43,43,44,44,45,45],"right_children":[2,4,6,8,10,12,14,16,-1,18,20,22,24,26,28,-1,-1,-1,30,32,34,36,38,40,42,44,46,-1,-1,-1,48,-1,-1,50,-1,52,54,56,58,60,62,64,66,68,70,72,-1,-1,-1,-1,-1,-1,-1,-1,-1,-1,-1,-1,-1,-1,-1,-1,-1,-1,-1,-1,-1,-1,-1,-1,-1,-1,-1],"split_conditions":[-1.6694058E-1,-9.142522E-1,1.0004272E0,-1.5570397E0,-3.125914E-1,4.5628402E-1,1.9548339E0,-1.6584078E0,-3.8751686E1,1.2914914E0,-2.7951694E-1,5.6515906E-2,6.615121E-1,1.3543321E0,1.8948491E0,-8.540559E1,-5.3985027E1,-2.231713E1,-5.1608413E-1,-2.927191E-1,-7.402399E-2,-2.2979451E-2,2.5121164E-1,6.299681E-1,7.7978677E-1,-5.3710324E-1,1.0166739E0,3.4055714E1,1.3654622E2,-1.5203467E1,-3.485418E-1,-4.447998E-1,-4.1308594E0,-5.9243256E-1,-1.2817384E-2,-2.4022292E-2,2.433215E-1,1.8459922E-1,-6.617514E-1,5.5612224E-1,-9.230294E-1,1.0256845E0,6.6942513E-1,1.0493479E0,1.4245149E0,-6.103213E-1,1.2722169E1,7.951661E-1,-7.391382E0,-1.5021974E-1,-1.1330432E1,-3.4590476E0,-1.1010742E0,9.1685796E-1,-1.8462158E0,3.5960963E0,6.633516E0,1.5505176E1,9.200063E0,1.3727982E1,2.5104404E1,-1.4295411E0,5.551465E0,2.0809387E1,5.7124515E0,1.3605176E1,2.6893316E1,9.0351564E-1,2.6157688E1,3.8734333E1,9.575098E0,1.4836671E1,5.65871E1],"split_indices":[3,3,3,3,1,3,3,3,0,4,2,3,3,3,1,0,0,0,3,1,0,3,3,3,3,11,4,0,0,0,1,0,0,11,0,2,6,2,11,3,13,7,9,1,0,4,0,0,0,0,0,0,0,0,0,0,0,0,0,0,0,0,0,0,0,0,0,0,0,0,0,0,0],"split_type":[0,0,0,0,0,0,0,0,0,0,0,0,0,0,0,0,0,0,0,0,0,0,0,0,0,0,0,0,0,0,0,0,0,0,0,0,0,0,0,0,0,0,0,0,0,0,0,0,0,0,0,0,0,0,0,0,0,0,0,0,0,0,0,0,0,0,0,0,0,0,0,0,0],"sum_hessian":[6.11E2,2.15E2,3.96E2,1.55E2,6E1,3.09E2,8.7E1,5E1,1.05E2,4.2E1,1.8E1,1.4E2,1.69E2,8.3E1,4E0,8E0,4.2E1,3.4E1,8E0,4E0,1.4E1,5.7E1,8.3E1,5.2E1,1.17E2,5.5E1,2.8E1,1E0,3E0,5E0,3E0,1E0,3E0,1.3E1,1E0,4.5E1,1.2E1,3.8E1,4.5E1,4.5E1,7E0,5.3E1,6.4E1,1.1E1,4.4E1,2.7E1,1E0,2E0,1E0,1E0,1.2E1,3.7E1,8E0,1.1E1,1E0,1.9E1,1.9E1,5E0,4E1,3.3E1,1.2E1,1E0,6E0,5.2E1,1E0,5E0,5.9E1,1E0,1E1,4.3E1,1E0,1E0,2.6E1],"tree_param":{"num_deleted":"0","num_feature":"14","num_nodes":"73","size_leaf_vector":"1"}},{"base_weights":[9.201955E-1,-9.019613E1,5.04925E1,-1.281811E2,-6.2567432E1,3.235657E1,1.1871329E2,-7.093987E1,-3.570883E1,-7.990616E1,-3.7648293E1,6.0161653E0,4.8754368E1,1.03825195E2,3.3020255E2,-7.621383E1,-4.2566017E1,1.8596851E1,-4.0697865E1,-5.487271E0,1.6188213E1,3.064769E1,5.482858E1,8.887841E1,1.3255511E2,4.519004E1,1.1991123E2,-8.1856125E1,-4.9316048E1,-3.6170734E1,-3.1227932E1,-9.122946E0,-1.7898763E0,8.165454E0,1.9324451E1,1.3757959E1,2.799724E1,5.5370895E1,-3.4083986E0,5.980168E1,9.5602104E1,1.3804591E1,1.3807965E2,-2.4863203E1,-3.5469728E0,-1.8002785E1,4.0379887E0,-1.3110955E1,-5.560521E0,1.6384278E-1,-3.0778847E0,1.4553224E-1,-1.7290484E0,3.449955E0,5.179138E-1,6.058584E0,3.3251956E-2,-3.5581057E0,9.023551E0,1.4866464E1,1.9858818E1,7.680176E-1,1.9307545E1,3.1573755E1,1.8575586E1,4.2596527E1,7.8130374E0],"categories":[],"categories_nodes":[],"categories_segments":[],"categories_sizes":[],"default_left":[0,0,0,0,0,0,0,0,0,0,0,0,0,0,0,0,0,0,0,0,0,0,0,0,0,0,0,0,0,0,0,0,0,0,0,0,0,0,0,0,0,0,0,0,0,0,0,0,0,0,0,0,0,0,0,0,0,0,0,0,0,0,0,0,0,0,0],"id":10,"left_children":[1,3,5,7,9,11,13,-1,-1,15,17,19,21,23,25,27,-1,-1,29,31,33,35,37,39,41,-1,-1,43,45,47,-1,49,51,53,55,-1,57,59,-1,61,63,-1,65,-1,-1,-1,-1,-1,-1,-1,-1,-1,-1,-1,-1,-1,-1,-1,-1,-1,-1,-1,-1,-1,-1,-1,-1],"loss_changes":[2.768864E6,2.1866675E5,4.8734606E5,6.1042625E4,5.1864094E4,1.3576294E5,2.270565E5,0E0,0E0,6.1213438E3,1.8930883E4,1.4364479E4,1.9656469E4,2.2142938E4,2.1928125E3,6.8902812E3,0E0,0E0,1.1445789E4,7.633375E2,1.4776895E3,7.723242E2,5.798125E3,5.0354688E3,5.5985312E3,0E0,0E0,3.1681875E3,1.0876902E4,5.9647734E3,0E0,3.2432935E2,2.7399338E2,4.0955542E2,7.674219E2,0E0,4.172629E3,5.7228438E3,0E0,3.2261445E3,7.4511875E3,0E0,6.374375E3,0E0,0E0,0E0,0E0,0E0,0E0,0E0,0E0,0E0,0E0,0E0,0E0,0E0,0E0,0E0,0E0,0E0,0E0,0E0,0E0,0E0,0E0,0E0,0E0],"parents":[2147483647,0,0,1,1,2,2,3,3,4,4,5,5,6,6,9,9,10,10,11,11,12,12,13,13,14,14,15,15,18,18,19,19,20,20,21,21,22,22,23,23,24,24,27,27,28,28,29,29,31,31,32,32,33,33,34,34,36,36,37,37,39,39,40,40,42,42],"right_children":[2,4,6,8,10,12,14,-1,-1,16,18,20,22,24,26,28,-1,-1,30,32,34,36,38,40,42,-1,-1,44,46,48,-1,50,52,54,56,-1,58,60,-1,62,64,-1,66,-1,-1,-1,-1,-1,-1,-1,-1,-1,-1,-1,-1,-1,-1,-1,-1,-1,-1,-1,-1,-1,-1,-1,-1],"split_conditions":[-1.6694058E-1,-1.454407E0,1.0213953E0,-1.672451E0,-8.9474386E-1,3.4016976E-1,1.8388549E0,-7.093987E1,-3.570883E1,-7.4839246E-1,-1.07305E0,5.6515906E-2,5.439741E-1,1.3769349E0,1.9548339E0,-6.96089E-2,-4.2566017E1,1.8596851E1,-3.7282623E-2,-8.501237E-2,1.838189E-1,3.68772E-1,1.0931735E0,-5.219751E-1,-2.006336E-1,4.519004E1,1.1991123E2,7.4594843E-1,3.9617142E-1,-2.9911387E-1,-3.1227932E1,-4.1612002E-1,-3.1399813E-2,1.8711126E-1,8.35688E-1,1.3757959E1,4.0167424E-1,8.559667E-1,-3.4083986E0,1.0493479E0,1.2648734E0,1.3804591E1,1.8018354E0,-2.4863203E1,-3.5469728E0,-1.8002785E1,4.0379887E0,-1.3110955E1,-5.560521E0,1.6384278E-1,-3.0778847E0,1.4553224E-1,-1.7290484E0,3.449955E0,5.179138E-1,6.058584E0,3.3251956E-2,-3.5581057E0,9.023551E0,1.4866464E1,1.9858818E1,7.680176E-1,1.9307545E1,3.1573755E1,1.8575586E1,4.2596527E1,7.8130374E0],"split_indices":[3,3,1,3,1,3,2,0,0,9,3,3,3,2,3,13,0,0,5,3,3,3,3,11,11,0,0,12,11,8,0,6,9,0,4,0,3,3,0,1,5,0,9,0,0,0,0,0,0,0,0,0,0,0,0,0,0,0,0,0,0,0,0,0,0,0,0],"split_type":[0,0,0,0,0,0,0,0,0,0,0,0,0,0,0,0,0,0,0,0,0,0,0,0,0,0,0,0,0,0,0,0,0,0,0,0,0,0,0,0,0,0,0,0,0,0,0,0,0,0,0,0,0,0,0,0,0,0,0,0,0,0,0,0,0,0,0],"sum_hessian":[6.11E2,2.15E2,3.96E2,8.9E1,1.26E2,3.14E2,8.2E1,5E0,8.4E1,7.3E1,5.3E1,1.21E2,1.93E2,7.8E1,4E0,7.1E1,2E0,1E0,5.2E1,5.7E1,6.4E1,5E1,1.43E2,5.4E1,2.4E1,2E0,2E0,5.7E1,1.4E1,5E1,2E0,2.8E1,2.9E1,1.9E1,4.5E1,5E0,4.5E1,1.42E2,1E0,1.2E1,4.2E1,2E0,2.2E1,5.6E1,1E0,1.2E1,2E0,3.4E1,1.6E1,3E0,2.5E1,1.9E1,1E1,1.2E1,7E0,4.3E1,2E0,2E0,4.3E1,9.6E1,4.6E1,1E0,1.1E1,3.1E1,1.1E1,2.1E1,1E0],"tree_param":{"num_deleted":"0","num_feature":"14","num_nodes":"67","size_leaf_vector":"1"}},{"base_weights":[8.6109954E-1,-6.416922E1,3.6240665E1,-1.0423406E2,-5.0502533E1,2.6020124E1,1.0354965E2,-1.7734961E2,-2.7946177E1,-6.331862E1,-2.803434E1,9.374971E0,4.2231243E1,8.466193E1,2.6416193E2,-5.7702175E1,-1.5359217E1,-6.0656036E1,-3.9555813E1,-5.6438965E1,-2.4490374E1,-1.2929255E0,1.824081E1,3.5675335E1,5.2266514E1,8.884905E1,3.0882812E1,3.6151955E1,9.5929E1,-6.231642E1,1.5807349E1,-7.7124146E1,-1.0045735E1,6.6309814E0,-2.6377073E1,-5.3756156E0,4.2687416E0,1.8830858E1,-5.9342446E0,3.83525E1,1.6676432E0,5.7372784E1,3.7398144E1,4.728976E1,9.416658E1,-1.4472656E0,1.2304688E1,-8.459144E0,-1.914461E1,-5.470606E0,-2.7202589E1,6.118653E-1,-5.1324463E0,-5.253589E0,6.1547856E0,-1.0472168E1,-5.0609975E0,-2.2785425E0,-1.0597277E0,2.6205533E0,3.2635325E-1,4.6054955E0,7.4623904E0,5.1357424E-1,-3.1839845E0,1.005242E1,1.4935778E1,8.955078E0,-3.194657E0,1.4298109E1,2.5712725E1,2.913318E0,1.5467872E1,1.831167E1,-5.2807617E0,2.7392578E0,2.886542E1],"categories":[],"categories_nodes":[],"categories_segments":[],"categories_sizes":[],"default_left":[0,0,0,0,0,0,0,0,0,0,0,0,0,0,0,0,0,0,0,0,0,0,0,0,0,0,0,0,0,0,0,0,0,0,0,0,0,0,0,0,0,0,0,0,0,0,0,0,0,0,0,0,0,0,0,0,0,0,0,0,0,0,0,0,0,0,0,0,0,0,0,0,0,0,0,0,0],"id":11,"left_children":[1,3,5,7,9,11,13,15,-1,17,19,21,23,25,27,-1,-1,29,-1,31,33,35,37,39,41,43,45,-1,-1,47,-1,49,51,53,55,57,59,61,63,65,67,69,71,73,75,-1,-1,-1,-1,-1,-1,-1,-1,-1,-1,-1,-1,-1,-1,-1,-1,-1,-1,-1,-1,-1,-1,-1,-1,-1,-1,-1,-1,-1,-1,-1,-1],"loss_changes":[1.4103812E6,1.1300756E5,2.7041562E5,2.7226312E4,4.516147E4,9.29675E4,1.3538275E5,1.4995156E3,0E0,1.07975625E4,4.7583516E3,1.629132E4,9.6486875E3,8.0647188E3,1.4036875E3,0E0,0E0,2.2291688E4,0E0,4.9831445E3,3.4630352E3,1.8167656E3,1.4526035E3,9.859875E3,2.941125E3,5.2705625E3,2.0069316E3,0E0,0E0,3.314875E3,0E0,1.5385469E3,2.90947E2,1.7001707E3,3.709254E3,1.6135718E2,4.7354468E2,1.552668E3,1.2549899E2,3.926E3,3.4418716E3,9.125344E3,7.3410703E3,7.3199336E3,5.7505625E3,0E0,0E0,0E0,0E0,0E0,0E0,0E0,0E0,0E0,0E0,0E0,0E0,0E0,0E0,0E0,0E0,0E0,0E0,0E0,0E0,0E0,0E0,0E0,0E0,0E0,0E0,0E0,0E0,0E0,0E0,0E0,0E0],"parents":[2147483647,0,0,1,1,2,2,3,3,4,4,5,5,6,6,7,7,9,9,10,10,11,11,12,12,13,13,14,14,17,17,19,19,20,20,21,21,22,22,23,23,24,24,25,25,26,26,29,29,31,31,32,32,33,33,34,34,35,35,36,36,37,37,38,38,39,39,40,40,41,41,42,42,43,43,44,44],"right_children":[2,4,6,8,10,12,14,16,-1,18,20,22,24,26,28,-1,-1,30,-1,32,34,36,38,40,42,44,46,-1,-1,48,-1,50,52,54,56,58,60,62,64,66,68,70,72,74,76,-1,-1,-1,-1,-1,-1,-1,-1,-1,-1,-1,-1,-1,-1,-1,-1,-1,-1,-1,-1,-1,-1,-1,-1,-1,-1,-1,-1,-1,-1,-1,-1],"split_conditions":[-1.6694058E-1,-1.537971E0,1.1718537E0,-1.672451E0,-9.142522E-1,5.628934E-1,1.8388549E0,-1.656057E0,-2.7946177E1,1.4884224E0,-1.0515164E0,1.6695255E-1,8.6431235E-1,1.5377433E0,1.9548339E0,-5.7702175E1,-1.5359217E1,-7.678559E-1,-3.9555813E1,-2.9775268E-1,-9.436925E-1,-2.2979451E-2,5.586139E-1,8.84805E-1,1.1012996E0,1.0542161E0,1.255548E0,3.6151955E1,9.5929E1,-1.5102817E0,1.5807349E1,-9.262259E-1,-7.8736085E-1,-7.303737E-1,-5.1608413E-1,-1.2770596E-1,-3.199355E-1,4.4767487E-1,5.2641433E-1,7.7978677E-1,8.717158E-1,1.0738288E0,1.1334121E0,1.8240117E0,1.4381035E-1,-1.4472656E0,1.2304688E1,-8.459144E0,-1.914461E1,-5.470606E0,-2.7202589E1,6.118653E-1,-5.1324463E0,-5.253589E0,6.1547856E0,-1.0472168E1,-5.0609975E0,-2.2785425E0,-1.0597277E0,2.6205533E0,3.2635325E-1,4.6054955E0,7.4623904E0,5.1357424E-1,-3.1839845E0,1.005242E1,1.4935778E1,8.955078E0,-3.194657E0,1.4298109E1,2.5712725E1,2.913318E0,1.5467872E1,1.831167E1,-5.2807617E0,2.7392578E0,2.886542E1],"split_indices":[3,3,3,3,3,8,2,2,0,11,13,2,1,10,3,0,0,0,0,4,13,3,8,8,3,9,3,0,0,3,0,6,0,1,3,1,7,3,0,3,0,3,3,7,7,0,0,0,0,0,0,0,0,0,0,0,0,0,0,0,0,0,0,0,0,0,0,0,0,0,0,0,0,0,0,0,0],"split_type":[0,0,0,0,0,0,0,0,0,0,0,0,0,0,0,0,0,0,0,0,0,0,0,0,0,0,0,0,0,0,0,0,0,0,0,0,0,0,0,0,0,0,0,0,0,0,0,0,0,0,0,0,0,0,0,0,0,0,0,0,0,0,0,0,0,0,0,0,0,0,0,0,0,0,0,0,0],"sum_hessian":[6.11E2,2.15E2,3.96E2,5.3E1,1.62E2,3.45E2,5.1E1,5E0,4.8E1,1.02E2,6E1,1.71E2,1.74E2,4.7E1,4E0,4E0,1E0,1E2,2E0,5E0,5.5E1,7.8E1,9.3E1,1.08E2,6.6E1,4.3E1,4E0,2E0,2E0,9.9E1,1E0,3E0,2E0,3E0,5.2E1,4.5E1,3.3E1,9.1E1,2E0,1E2,8E0,4.7E1,1.9E1,6E0,3.7E1,1E0,3E0,5E0,9.4E1,1E0,2E0,1E0,1E0,1E0,2E0,2.6E1,2.6E1,1.9E1,2.6E1,1.3E1,2E1,6E1,3.1E1,1E0,1E0,7.3E1,2.7E1,2E0,6E0,3.7E1,1E1,7E0,1.2E1,5E0,1E0,1E0,3.6E1],"tree_param":{"num_deleted":"0","num_feature":"14","num_nodes":"77","size_leaf_vector":"1"}},{"base_weights":[7.3601097E-1,-4.5543213E1,2.6275593E1,-6.701892E1,-3.1043747E1,2.3841974E1,2.113295E2,-4.08965E1,-6.1130684E1,-3.6730797E1,-1.3571346E1,1.4300431E1,4.8086273E1,9.073887E1,3.3879128E1,-2.0571613E1,-5.3145596E1,-3.4474445E1,-2.9232763E1,-4.056722E0,-2.284734E1,1.7517136E0,2.173469E1,4.171074E1,7.1692474E1,-4.5727592E1,-2.0195154E1,-3.9605465E1,-1.624397E1,8.304967E0,-1.09296465E1,-2.9821665E1,-1.4462891E-1,-3.084064E0,5.80691E0,1.800663E1,3.0843828E1,1.2080078E0,4.310958E1,5.270606E0,7.622642E1,-1.1253786E1,-1.7400146E1,-1.1022396E1,-2.4377638E1,-2.180985E0,-2.2094238E1,3.874717E0,-6.443848E-1,-4.7863773E-1,-4.159131E0,-1.1377132E1,-2.7820606E0,4.4901366E0,-4.5624514E0,-6.553497E-1,-2.0518231E0,2.235355E0,3.209054E-2,1.0313795E1,4.852043E0,9.8331175E0,-3.1107423E0,7.717383E0,-4.661719E0,1.2347601E1,2.5009571E1,2.3828213E1,2.3112307E0],"categories":[],"categories_nodes":[],"categories_segments":[],"categories_sizes":[],"default_left":[0,0,0,0,0,0,0,0,0,0,0,0,0,0,0,0,0,0,0,0,0,0,0,0,0,0,0,0,0,0,0,0,0,0,0,0,0,0,0,0,0,0,0,0,0,0,0,0,0,0,0,0,0,0,0,0,0,0,0,0,0,0,0,0,0,0,0,0,0],"id":12,"left_children":[1,3,5,7,9,11,13,-1,15,17,19,21,23,-1,-1,-1,25,27,-1,29,31,33,35,37,39,41,-1,43,45,47,49,51,53,55,57,59,61,63,65,-1,67,-1,-1,-1,-1,-1,-1,-1,-1,-1,-1,-1,-1,-1,-1,-1,-1,-1,-1,-1,-1,-1,-1,-1,-1,-1,-1,-1,-1],"loss_changes":[7.245514E5,6.580169E4,1.7285E5,2.7168719E4,1.2617867E4,8.976161E4,1.06799375E4,0E0,1.228125E3,1.0202453E4,2.9080732E3,2.6269816E4,1.3564875E4,0E0,0E0,0E0,1.5472344E3,8.430117E3,0E0,1.6200676E3,2.6873994E3,2.096572E3,5.455422E3,4.9903906E3,4.0594766E3,1.0505391E3,0E0,5.962039E3,1.1312809E4,3.6511325E2,3.065327E2,1.8125938E3,1.365805E3,1.5059009E2,5.427938E2,3.285711E3,4.323582E3,2.0420613E3,3.3228281E3,0E0,3.7748203E3,0E0,0E0,0E0,0E0,0E0,0E0,0E0,0E0,0E0,0E0,0E0,0E0,0E0,0E0,0E0,0E0,0E0,0E0,0E0,0E0,0E0,0E0,0E0,0E0,0E0,0E0,0E0,0E0],"parents":[2147483647,0,0,1,1,2,2,3,3,4,4,5,5,6,6,8,8,9,9,10,10,11,11,12,12,16,16,17,17,19,19,20,20,21,21,22,22,23,23,24,24,25,25,27,27,28,28,29,29,30,30,31,31,32,32,33,33,34,34,35,35,36,36,37,37,38,38,40,40],"right_children":[2,4,6,8,10,12,14,-1,16,18,20,22,24,-1,-1,-1,26,28,-1,30,32,34,36,38,40,42,-1,44,46,48,50,52,54,56,58,60,62,64,66,-1,68,-1,-1,-1,-1,-1,-1,-1,-1,-1,-1,-1,-1,-1,-1,-1,-1,-1,-1,-1,-1,-1,-1,-1,-1,-1,-1,-1,-1],"split_conditions":[-1.5834562E-1,-1.4638822E0,1.8388549E0,-1.672451E0,-5.4374814E-1,8.9356697E-1,1.7641318E0,-4.08965E1,-1.56901E0,-5.283521E-1,-3.941266E-2,3.099484E-1,1.4202795E0,9.073887E1,3.3879128E1,-2.0571613E1,-1.4815271E0,-8.979634E-1,-2.9232763E1,-2.63343E-1,9.265443E-1,1.1099597E-2,7.9660636E-1,8.5242623E-1,-2.006336E-1,-3.041293E-1,-2.0195154E1,-7.4839246E-1,-6.8412715E-1,-2.6011378E-1,-2.7951694E-1,-3.146867E-1,2.025332E0,4.7488384E-2,3.0535185E-1,1.353741E-1,1.5751567E0,8.065474E-1,1.886343E0,5.270606E0,1.8018354E0,-1.1253786E1,-1.7400146E1,-1.1022396E1,-2.4377638E1,-2.180985E0,-2.2094238E1,3.874717E0,-6.443848E-1,-4.7863773E-1,-4.159131E0,-1.1377132E1,-2.7820606E0,4.4901366E0,-4.5624514E0,-6.553497E-1,-2.0518231E0,2.235355E0,3.209054E-2,1.0313795E1,4.852043E0,9.8331175E0,-3.1107423E0,7.717383E0,-4.661719E0,1.2347601E1,2.5009571E1,2.3828213E1,2.3112307E0],"split_indices":[3,3,2,3,3,3,0,0,3,0,12,2,3,0,0,0,3,8,0,6,7,3,6,1,11,11,0,9,3,0,2,3,4,12,9,6,7,0,7,0,9,0,0,0,0,0,0,0,0,0,0,0,0,0,0,0,0,0,0,0,0,0,0,0,0,0,0,0,0],"split_type":[0,0,0,0,0,0,0,0,0,0,0,0,0,0,0,0,0,0,0,0,0,0,0,0,0,0,0,0,0,0,0,0,0,0,0,0,0,0,0,0,0,0,0,0,0,0,0,0,0,0,0,0,0,0,0,0,0,0,0,0,0,0,0,0,0,0,0,0,0],"sum_hessian":[6.11E2,2.17E2,3.94E2,8.6E1,1.31E2,3.9E2,4E0,5E0,8.1E1,9.8E1,3.3E1,2.81E2,1.09E2,1E0,3E0,3.8E1,4.3E1,9.6E1,2E0,1.7E1,1.6E1,1.05E2,1.76E2,8.8E1,2.1E1,3.1E1,1.2E1,7.4E1,2.2E1,6E0,1.1E1,1.2E1,4E0,4.8E1,5.7E1,1.27E2,4.9E1,3E0,8.5E1,2E0,1.9E1,2.1E1,1E1,7.1E1,3E0,2E1,2E0,4E0,2E0,3E0,8E0,8E0,4E0,2E0,2E0,4E1,8E0,4.4E1,1.3E1,1.1E1,1.16E2,4.7E1,2E0,1E0,2E0,8.3E1,2E0,1.8E1,1E0],"tree_param":{"num_deleted":"0","num_feature":"14","num_nodes":"69","size_leaf_vector":"1"}},{"base_weights":[5.202489E-1,-3.2865837E1,1.894467E1,-4.8181274E1,-2.2522585E1,1.6928064E1,1.728543E2,-3.5828835E1,-4.421492E1,-2.1014254E1,-6.5535645E1,1.1281593E1,3.9085247E1,7.712798E1,2.6256372E1,-1.7822996E1,-1.2479814E1,-2.8987206E1,-1.1651171E1,1.0407715E-1,-2.6283644E1,4.1520567E0,1.9620064E1,3.3659634E1,5.1612526E1,-2.6000946E1,-6.201113E1,-5.0649357E0,-2.7103569E1,-5.6419736E-1,8.657956E0,4.852256E1,1.7333803E1,3.9527676E1,1.8423557E1,3.297596E1,7.067881E1,-8.355472E0,6.4587407E0,-2.083352E1,-4.8413086E0,-9.875934E0,-4.3693727E-1,-1.5953823E0,-1.1265967E1,-7.952804E-1,5.0669664E-1,4.3141046E0,2.0205443E0,3.7749026E0,1.6780373E1,-3.4104269E0,6.067924E0,1.5327394E1,8.762391E0,9.6024275E0,2.6891847E0,1.4342227E1,-3.704004E0,4.923047E0,2.4658411E1],"categories":[],"categories_nodes":[],"categories_segments":[],"categories_sizes":[],"default_left":[0,0,0,0,0,0,0,0,0,0,0,0,0,0,0,0,0,0,0,0,0,0,0,0,0,0,0,0,0,0,0,0,0,0,0,0,0,0,0,0,0,0,0,0,0,0,0,0,0,0,0,0,0,0,0,0,0,0,0,0,0],"id":13,"left_children":[1,3,5,7,9,11,13,-1,15,17,19,21,23,-1,-1,-1,-1,25,27,-1,-1,29,31,33,35,37,39,41,43,45,47,49,51,53,55,57,59,-1,-1,-1,-1,-1,-1,-1,-1,-1,-1,-1,-1,-1,-1,-1,-1,-1,-1,-1,-1,-1,-1,-1,-1],"loss_changes":[3.7707562E5,3.3448516E4,1.1967203E5,1.930525E4,7.1867188E3,4.8477016E4,1.3440734E4,0E0,8.670156E2,9.292297E3,5.8482188E3,1.852621E4,3.6322188E3,0E0,0E0,0E0,0E0,5.192293E3,6.070884E3,0E0,0E0,3.6175496E3,8.674234E3,4.457297E3,5.4865625E3,6.317039E3,5.8441797E2,4.3746514E3,3.8980352E3,3.9942917E2,8.604131E2,1.9600195E3,1.143809E4,3.4003945E3,2.0261602E3,9.328876E3,4.9006914E3,0E0,0E0,0E0,0E0,0E0,0E0,0E0,0E0,0E0,0E0,0E0,0E0,0E0,0E0,0E0,0E0,0E0,0E0,0E0,0E0,0E0,0E0,0E0,0E0],"parents":[2147483647,0,0,1,1,2,2,3,3,4,4,5,5,6,6,8,8,9,9,10,10,11,11,12,12,17,17,18,18,21,21,22,22,23,23,24,24,25,25,26,26,27,27,28,28,29,29,30,30,31,31,32,32,33,33,34,34,35,35,36,36],"right_children":[2,4,6,8,10,12,14,-1,16,18,20,22,24,-1,-1,-1,-1,26,28,-1,-1,30,32,34,36,38,40,42,44,46,48,50,52,54,56,58,60,-1,-1,-1,-1,-1,-1,-1,-1,-1,-1,-1,-1,-1,-1,-1,-1,-1,-1,-1,-1,-1,-1,-1,-1],"split_conditions":[-1.5834562E-1,-1.4638822E0,1.8388549E0,-1.6921558E0,2.1458654E0,1.0213953E0,1.7641318E0,-3.5828835E1,-1.6509504E0,-1.0124966E0,-1.339439E0,5.439741E-1,1.4202795E0,7.712798E1,2.6256372E1,-1.7822996E1,-1.2479814E1,-3.2543817E-1,2.1791852E0,1.0407715E-1,-2.6283644E1,2.0679769E-1,5.8239883E-1,1.3985407E0,1.6167523E0,3.1431603E-1,2.2888284E-3,-1.374507E0,-8.536285E-1,-2.2979451E-2,-5.470522E-1,5.5612224E-1,6.615121E-1,-4.475435E-1,1.1241335E0,1.7641318E0,4.6303317E-1,-8.355472E0,6.4587407E0,-2.083352E1,-4.8413086E0,-9.875934E0,-4.3693727E-1,-1.5953823E0,-1.1265967E1,-7.952804E-1,5.0669664E-1,4.3141046E0,2.0205443E0,3.7749026E0,1.6780373E1,-3.4104269E0,6.067924E0,1.5327394E1,8.762391E0,9.6024275E0,2.6891847E0,1.4342227E1,-3.704004E0,4.923047E0,2.4658411E1],"split_indices":[3,3,2,1,11,1,0,0,3,7,2,3,3,0,0,0,0,4,13,0,0,1,3,6,9,12,4,3,6,3,12,3,3,4,2,0,11,0,0,0,0,0,0,0,0,0,0,0,0,0,0,0,0,0,0,0,0,0,0,0,0],"split_type":[0,0,0,0,0,0,0,0,0,0,0,0,0,0,0,0,0,0,0,0,0,0,0,0,0,0,0,0,0,0,0,0,0,0,0,0,0,0,0,0,0,0,0,0,0,0,0,0,0,0,0,0,0,0,0,0,0,0,0,0,0],"sum_hessian":[6.11E2,2.17E2,3.94E2,8.6E1,1.31E2,3.9E2,4E0,3E0,8.3E1,1.28E2,3E0,3.12E2,7.8E1,1E0,3E0,9E0,7.4E1,6.8E1,6E1,1E0,2E0,1.69E2,1.43E2,5.7E1,2.1E1,6.4E1,4E0,4.3E1,1.7E1,8.3E1,8.6E1,9E0,1.34E2,4E1,1.7E1,1.2E1,9E0,6.2E1,2E0,3E0,1E0,4E0,3.9E1,6E0,1.1E1,4.3E1,4E1,2E1,6.6E1,2E0,7E0,1.2E1,1.22E2,1.7E1,2.3E1,6E0,1.1E1,9E0,3E0,2E0,7E0],"tree_param":{"num_deleted":"0","num_feature":"14","num_nodes":"61","size_leaf_vector":"1"}},{"base_weights":[4.7221863E-1,-2.349185E1,1.3886017E1,-6.570337E1,-2.1168903E1,1.2806495E1,6.555879E1,-2.6519928E1,-1.2031641E1,-2.6463005E1,-1.1081595E1,9.295991E0,3.719031E1,-2.4859568E1,-4.256969E1,-3.3836994E1,-8.942263E0,3.034078E0,1.5186981E1,3.204197E1,2.282619E1,-2.708707E1,3.9109375E0,1.795996E1,-5.8016277E1,-4.1821484E1,9.128174E-1,-4.586204E0,-1.5970121E1,-2.8832412E-1,6.130663E0,1.0228503E1,1.8816841E1,1.92459E1,2.6424267E1,-9.6619E0,-6.854787E0,7.4731517E0,-1.0144813E1,-5.7470217E0,1.3829004E1,-2.1378098E1,-2.332422E0,-3.069507E0,-1.4148304E1,-8.64795E0,-8.236677E-1,-6.1927953E0,-1.01576455E-1,3.5720218E-2,-3.316797E0,2.5163376E0,-2.7581677E-1,2.1669004E0,8.8929205E0,9.36686E0,4.9887986E0,-5.097891E0,9.51613E0],"categories":[],"categories_nodes":[],"categories_segments":[],"categories_sizes":[],"default_left":[0,0,0,0,0,0,0,0,0,0,0,0,0,0,0,0,0,0,0,0,0,0,0,0,0,0,0,0,0,0,0,0,0,0,0,0,0,0,0,0,0,0,0,0,0,0,0,0,0,0,0,0,0,0,0,0,0,0,0],"id":14,"left_children":[1,3,5,7,9,11,-1,-1,-1,13,15,17,19,21,23,25,27,29,31,33,-1,35,37,39,41,43,-1,45,47,49,51,53,55,-1,57,-1,-1,-1,-1,-1,-1,-1,-1,-1,-1,-1,-1,-1,-1,-1,-1,-1,-1,-1,-1,-1,-1,-1,-1],"loss_changes":[1.970531E5,2.018125E4,8.402174E4,2.8454688E3,1.0921422E4,3.3209277E4,0E0,0E0,0E0,2.4798984E3,3.2998438E3,1.2643693E4,7.374508E3,8.244906E3,1.1326707E4,1.8940454E3,2.0391079E3,1.7301682E3,2.9932812E3,6.4223633E3,0E0,1.8240312E3,8.764877E3,4.0160884E3,5.434586E3,3.6083594E2,0E0,1.8840371E3,1.8920195E3,3.6102216E2,1.3921321E3,4.2788784E3,2.221754E3,0E0,9.736814E3,0E0,0E0,0E0,0E0,0E0,0E0,0E0,0E0,0E0,0E0,0E0,0E0,0E0,0E0,0E0,0E0,0E0,0E0,0E0,0E0,0E0,0E0,0E0,0E0],"parents":[2147483647,0,0,1,1,2,2,3,3,4,4,5,5,9,9,10,10,11,11,12,12,13,13,14,14,15,15,16,16,17,17,18,18,19,19,21,21,22,22,23,23,24,24,25,25,27,27,28,28,29,29,30,30,31,31,32,32,34,34],"right_children":[2,4,6,8,10,12,-1,-1,-1,14,16,18,20,22,24,26,28,30,32,34,-1,36,38,40,42,44,-1,46,48,50,52,54,56,-1,58,-1,-1,-1,-1,-1,-1,-1,-1,-1,-1,-1,-1,-1,-1,-1,-1,-1,-1,-1,-1,-1,-1,-1,-1],"split_conditions":[-1.4651947E-1,-1.6538954E0,3.8575547E0,-1.3376843E0,-9.5931715E-1,1.183648E0,6.555879E1,-2.6519928E1,-1.2031641E1,-9.9620795E-1,-1.0515164E0,5.628934E-1,1.8581094E0,-1.3275343E0,-1.124711E0,1.3950869E-3,-3.941266E-2,2.0679769E-1,-3.3449095E-1,1.2320976E0,2.282619E1,-1.5032014E0,-3.4136212E-1,-1.0707704E0,-9.426231E-1,-9.262259E-1,9.128174E-1,-1.436694E0,1.6856333E0,2.3454551E-1,8.35688E-1,1.0585468E0,-2.081569E-1,1.92459E1,1.2632995E0,-9.6619E0,-6.854787E0,7.4731517E0,-1.0144813E1,-5.7470217E0,1.3829004E1,-2.1378098E1,-2.332422E0,-3.069507E0,-1.4148304E1,-8.64795E0,-8.236677E-1,-6.1927953E0,-1.01576455E-1,3.5720218E-2,-3.316797E0,2.5163376E0,-2.7581677E-1,2.1669004E0,8.8929205E0,9.36686E0,4.9887986E0,-5.097891E0,9.51613E0],"split_indices":[3,3,12,4,2,3,0,0,0,9,13,8,8,3,4,11,12,1,11,3,0,0,4,0,3,6,0,7,4,3,4,4,11,0,3,0,0,0,0,0,0,0,0,0,0,0,0,0,0,0,0,0,0,0,0,0,0,0,0],"split_type":[0,0,0,0,0,0,0,0,0,0,0,0,0,0,0,0,0,0,0,0,0,0,0,0,0,0,0,0,0,0,0,0,0,0,0,0,0,0,0,0,0,0,0,0,0,0,0,0,0,0,0,0,0,0,0,0,0,0,0],"sum_hessian":[6.11E2,2.19E2,3.92E2,1E1,2.09E2,3.91E2,1E0,4E0,6E0,1.36E2,7.3E1,3.43E2,4.8E1,1.26E2,1E1,5E0,6.8E1,1.67E2,1.76E2,4.4E1,4E0,1.17E2,9E0,2E0,8E0,4E0,1E0,4.3E1,2.5E1,8.1E1,8.6E1,7.6E1,1E2,5E0,3.9E1,5E1,6.7E1,6E0,3E0,1E0,1E0,6E0,2E0,1E0,3E0,2E0,4.1E1,1.9E1,6E0,7.9E1,2E0,6.5E1,2.1E1,6.7E1,9E0,1.3E1,8.7E1,4E0,3.5E1],"tree_param":{"num_deleted":"0","num_feature":"14","num_nodes":"59","size_leaf_vector":"1"}},{"base_weights":[3.8106042E-1,-1.6380428E1,1.0445711E1,-2.1800337E1,-1.5316421E1,9.500544E0,5.5725002E1,-2.1665035E1,-9.674867E0,5.9005823E0,2.3016638E1,-2.7297054E1,-1.8745121E1,-8.535655E0,-4.1147705E1,2.1834278E0,9.778795E0,2.0423674E1,1.734791E1,-4.7634E0,-2.9176924E1,-1.4456008E1,-2.3788795E1,-7.135693E0,-2.1632036E1,4.3835452E-1,-1.6751318E1,-6.0603076E-1,3.5839844E0,1.2368726E1,-1.275357E0,3.56546E1,1.7010773E1,-2.965381E0,-9.084231E0,-2.655156E0,-5.892013E0,-3.4342897E0,-8.436068E0,-3.6997814E0,-1.1081576E0,-9.656544E-1,-9.508206E0,-4.4454346E0,-1.43273E-2,3.1794837E0,8.1751066E-1,2.485024E0,5.927553E0,-6.1065993E0,1.3761125E0,1.2044044E1,6.1313086E0,3.9882815E-1,6.796339E0],"categories":[],"categories_nodes":[],"categories_segments":[],"categories_sizes":[],"default_left":[0,0,0,0,0,0,0,0,0,0,0,0,0,0,0,0,0,0,0,0,0,0,0,0,0,0,0,0,0,0,0,0,0,0,0,0,0,0,0,0,0,0,0,0,0,0,0,0,0,0,0,0,0,0,0],"id":15,"left_children":[1,3,5,-1,7,9,-1,11,13,15,17,19,21,23,25,27,29,31,-1,-1,33,35,37,39,41,-1,-1,43,45,47,49,51,53,-1,-1,-1,-1,-1,-1,-1,-1,-1,-1,-1,-1,-1,-1,-1,-1,-1,-1,-1,-1,-1,-1],"loss_changes":[1.0341461E5,1.2661738E4,6.1695324E4,0E0,7.920633E3,1.845132E4,0E0,1.2314844E3,4.022995E3,4.346672E3,6.0398047E3,2.6658594E2,1.2353086E3,2.0274375E3,2.5852915E3,6.11632E2,4.2529375E3,3.3440918E3,0E0,0E0,2.969668E2,1.0466562E3,1.3886465E3,1.9041177E3,1.9359873E3,0E0,0E0,4.1980618E2,5.9771106E2,3.459082E3,3.3371487E3,6.813867E1,5.633924E3,0E0,0E0,0E0,0E0,0E0,0E0,0E0,0E0,0E0,0E0,0E0,0E0,0E0,0E0,0E0,0E0,0E0,0E0,0E0,0E0,0E0,0E0],"parents":[2147483647,0,0,1,1,2,2,4,4,5,5,7,7,8,8,9,9,10,10,11,11,12,12,13,13,14,14,15,15,16,16,17,17,20,20,21,21,22,22,23,23,24,24,27,27,28,28,29,29,30,30,31,31,32,32],"right_children":[2,4,6,-1,8,10,-1,12,14,16,18,20,22,24,26,28,30,32,-1,-1,34,36,38,40,42,-1,-1,44,46,48,50,52,54,-1,-1,-1,-1,-1,-1,-1,-1,-1,-1,-1,-1,-1,-1,-1,-1,-1,-1,-1,-1,-1,-1],"split_conditions":[-1.1333478E-1,-1.6921558E0,3.8575547E0,-2.1800337E1,-1.4394004E0,1.0671558E0,5.5725002E1,-1.5976466E0,2.1458654E0,5.3803355E-1,1.8581094E0,-1.6511531E0,-5.875838E-1,1.1478668E0,-1.339439E0,1.2690344E-1,9.1091126E-1,1.1210517E0,1.734791E1,-4.7634E0,-1.6832017E0,-1.4722488E0,-1.2688972E0,-1.0124966E0,5.3729072E-2,4.3835452E-1,-1.6751318E1,-8.148543E-1,-7.0080227E-1,3.6264904E-2,8.827953E-1,1.1012996E0,1.1659311E0,-2.965381E0,-9.084231E0,-2.655156E0,-5.892013E0,-3.4342897E0,-8.436068E0,-3.6997814E0,-1.1081576E0,-9.656544E-1,-9.508206E0,-4.4454346E0,-1.43273E-2,3.1794837E0,8.1751066E-1,2.485024E0,5.927553E0,-6.1065993E0,1.3761125E0,1.2044044E1,6.1313086E0,3.9882815E-1,6.796339E0],"split_indices":[8,1,12,0,9,8,0,9,11,3,8,0,11,12,2,3,5,8,0,0,9,0,4,7,11,0,0,2,12,11,1,3,8,0,0,0,0,0,0,0,0,0,0,0,0,0,0,0,0,0,0,0,0,0,0],"split_type":[0,0,0,0,0,0,0,0,0,0,0,0,0,0,0,0,0,0,0,0,0,0,0,0,0,0,0,0,0,0,0,0,0,0,0,0,0,0,0,0,0,0,0,0,0,0,0,0,0,0,0,0,0,0,0],"sum_hessian":[6.11E2,2.29E2,3.82E2,3E0,2.26E2,3.81E2,1E0,1.05E2,1.21E2,3.02E2,7.9E1,3.3E1,7.2E1,1.18E2,3E0,1.55E2,1.47E2,7.5E1,4E0,6E0,2.7E1,4.1E1,3.1E1,1.08E2,1E1,1E0,2E0,5.2E1,1.03E2,1.19E2,2.8E1,1.2E1,6.3E1,2E0,2.5E1,2.1E1,2E1,9E0,2.2E1,4.2E1,6.6E1,4E0,6E0,1E0,5.1E1,1E1,9.3E1,7.8E1,4.1E1,6E0,2.2E1,8E0,4E0,1.7E1,4.6E1],"tree_param":{"num_deleted":"0","num_feature":"14","num_nodes":"55","size_leaf_vector":"1"}},{"base_weights":[2.848056E-1,-1.17781315E1,7.629469E0,-3.822228E1,-1.0414782E1,6.8185587E0,4.736631E1,-1.6895271E1,-2.439685E1,-1.2332133E1,-2.8107378E0,4.8317914E0,2.0140764E1,-1.7281495E0,-7.8708777E0,-1.150456E1,-1.3574561E1,4.216846E0,-4.314385E0,1.5623716E0,7.686016E0,5.1692383E1,1.6959303E1,-1.4642398E1,-7.2657375E0,-1.7982025E0,-1.0664673E1,1.9718391E0,-4.613037E0,2.8837696E1,6.381237E0,4.697461E0,1.7545313E1,8.310615E0,2.9951118E1,-4.0773377E0,-6.7918873E0,1.1532373E0,-2.9509256E0,-1.2880903E0,1.0068405E0,-5.7515383E0,-5.5479914E-1,2.3540725E-1,1.506574E0,4.9514163E-1,-3.3619921E0,4.1922855E0,1.2271875E1,-3.9670675E0,2.3922195E0,3.7871509E0,-6.540894E0,3.431543E0,1.3085216E1],"categories":[],"categories_nodes":[],"categories_segments":[],"categories_sizes":[],"default_left":[0,0,0,0,0,0,0,0,0,0,0,0,0,0,0,0,0,0,0,0,0,0,0,0,0,0,0,0,0,0,0,0,0,0,0,0,0,0,0,0,0,0,0,0,0,0,0,0,0,0,0,0,0,0,0],"id":16,"left_children":[1,3,5,7,9,11,-1,-1,13,15,17,19,21,-1,-1,23,-1,-1,25,27,29,31,33,35,37,39,41,43,45,47,49,-1,-1,51,53,-1,-1,-1,-1,-1,-1,-1,-1,-1,-1,-1,-1,-1,-1,-1,-1,-1,-1,-1,-1],"loss_changes":[5.431197E4,7.9661367E3,4.534674E4,1.3779551E3,3.2020137E3,9.96057E3,0E0,0E0,1.2310547E2,4.301047E3,1.2272888E3,3.0861016E3,4.0419668E3,0E0,0E0,2.2079434E3,0E0,0E0,6.678976E2,4.0356232E2,4.700873E3,6.3214844E1,4.919749E3,5.246211E2,2.2083647E3,4.260036E2,8.6446313E2,5.283303E2,4.314872E2,1.2221631E3,5.3515903E3,0E0,0E0,4.0419482E3,4.0550605E3,0E0,0E0,0E0,0E0,0E0,0E0,0E0,0E0,0E0,0E0,0E0,0E0,0E0,0E0,0E0,0E0,0E0,0E0,0E0,0E0],"parents":[2147483647,0,0,1,1,2,2,3,3,4,4,5,5,8,8,9,9,10,10,11,11,12,12,15,15,18,18,19,19,20,20,21,21,22,22,23,23,24,24,25,25,26,26,27,27,28,28,29,29,30,30,33,33,34,34],"right_children":[2,4,6,8,10,12,-1,-1,14,16,18,20,22,-1,-1,24,-1,-1,26,28,30,32,34,36,38,40,42,44,46,48,50,-1,-1,52,54,-1,-1,-1,-1,-1,-1,-1,-1,-1,-1,-1,-1,-1,-1,-1,-1,-1,-1,-1,-1],"split_conditions":[-1.0738337E-1,-1.6538954E0,3.8575547E0,-1.6698056E0,-5.1608413E-1,1.183648E0,4.736631E1,-1.6895271E1,-1.6579611E0,-5.283521E-1,-5.369238E-1,5.439741E-1,0E0,-1.7281495E0,-7.8708777E0,-1.4394004E0,-1.3574561E1,4.216846E0,4.7488384E-2,5.490394E-1,5.8239883E-1,1.1055169E0,1.6167523E0,-8.7716706E-2,-1.4143684E0,1.0271707E0,5.9015125E-1,3.6337918E-1,5.7605606E-1,5.733621E-1,6.615121E-1,4.697461E0,1.7545313E1,1.7641318E0,1.700865E0,-4.0773377E0,-6.7918873E0,1.1532373E0,-2.9509256E0,-1.2880903E0,1.0068405E0,-5.7515383E0,-5.5479914E-1,2.3540725E-1,1.506574E0,4.9514163E-1,-3.3619921E0,4.1922855E0,1.2271875E1,-3.9670675E0,2.3922195E0,3.7871509E0,-6.540894E0,3.431543E0,1.3085216E1],"split_indices":[8,3,12,0,3,3,0,0,0,0,0,3,13,0,0,9,0,0,12,0,3,0,9,11,9,4,7,4,2,3,3,0,0,0,1,0,0,0,0,0,0,0,0,0,0,0,0,0,0,0,0,0,0,0,0],"split_type":[0,0,0,0,0,0,0,0,0,0,0,0,0,0,0,0,0,0,0,0,0,0,0,0,0,0,0,0,0,0,0,0,0,0,0,0,0,0,0,0,0,0,0,0,0,0,0,0,0,0,0,0,0,0,0],"sum_hessian":[6.11E2,2.31E2,3.8E2,1E1,2.21E2,3.79E2,1E0,3E0,7E0,1.76E2,4.5E1,3.31E2,4.8E1,1E0,6E0,1.73E2,3E0,3E0,4.2E1,1.55E2,1.76E2,3E0,4.5E1,9.8E1,7.5E1,3.1E1,1.1E1,1.46E2,9E0,9E0,1.67E2,1E0,2E0,2.8E1,1.7E1,8.9E1,9E0,1.4E1,6.1E1,2.1E1,1E1,5E0,6E0,1.06E2,4E1,5E0,4E0,5E0,4E0,1.2E1,1.55E2,2.5E1,3E0,8E0,9E0],"tree_param":{"num_deleted":"0","num_feature":"14","num_nodes":"55","size_leaf_vector":"1"}},{"base_weights":[2.6794952E-1,-3.9444652E-1,8.076172E1,-9.929451E0,3.8972447E0,4.026138E1,1.0154957E1,-1.3093836E1,-9.150977E0,1.1177734E0,8.593801E0,-8.485921E0,-1.1186866E1,1.461757E0,-1.7061718E1,2.7285645E1,7.5325346E0,-1.0213272E1,-1.1488715E0,1.1344693E0,1.7991993E1,-1.5481935E0,-5.624048E0,4.463145E0,1.0792457E1,5.237785E0,1.5759033E1,-2.8581326E0,-1.2060645E1,1.2363502E1,-1.0609947E0,-3.807751E-1,8.409851E-1,1.6918947E0,7.304102E0,2.1583958E0,-4.335378E0,1.0006544E1,3.3795357E0],"categories":[],"categories_nodes":[],"categories_segments":[],"categories_sizes":[],"default_left":[0,0,0,0,0,0,0,0,0,0,0,0,0,0,0,0,0,0,0,0,0,0,0,0,0,0,0,0,0,0,0,0,0,0,0,0,0,0,0],"id":17,"left_children":[1,3,5,7,9,-1,-1,-1,11,13,15,17,-1,19,21,23,25,27,29,31,33,-1,-1,-1,-1,35,37,-1,-1,-1,-1,-1,-1,-1,-1,-1,-1,-1,-1],"loss_changes":[3.2662934E4,2.4918844E4,7.992717E3,4.561381E3,5.47305E3,0E0,0E0,0E0,3.1643174E3,1.682103E3,2.889043E3,2.307545E3,0E0,1.3916357E3,3.5272217E0,3.2735693E2,2.7302441E3,2.6624277E3,3.787063E3,1.0344781E3,2.5518799E2,0E0,0E0,0E0,0E0,4.650377E3,2.1546636E3,0E0,0E0,0E0,0E0,0E0,0E0,0E0,0E0,0E0,0E0,0E0,0E0],"parents":[2147483647,0,0,1,1,2,2,3,3,4,4,8,8,9,9,10,10,11,11,13,13,14,14,15,15,16,16,17,17,18,18,19,19,20,20,25,25,26,26],"right_children":[2,4,6,8,10,-1,-1,-1,12,14,16,18,-1,20,22,24,26,28,30,32,34,-1,-1,-1,-1,36,38,-1,-1,-1,-1,-1,-1,-1,-1,-1,-1,-1,-1],"split_conditions":[1.8388549E0,-5.1608413E-1,1.7641318E0,-1.6921558E0,7.980085E-1,4.026138E1,1.0154957E1,-1.3093836E1,-5.1517177E-1,7.9449767E-1,7.469715E-1,-9.3370456E-1,-1.1186866E1,8.413659E-1,6.594428E-1,-1.7405495E-3,9.40453E-1,-7.4839246E-1,-1.07305E0,1.6695255E-1,4.3735054E-1,-1.5481935E0,-5.624048E0,4.463145E0,1.0792457E1,8.643819E-1,1.0258976E0,-2.8581326E0,-1.2060645E1,1.2363502E1,-1.0609947E0,-3.807751E-1,8.409851E-1,1.6918947E0,7.304102E0,2.1583958E0,-4.335378E0,1.0006544E1,3.3795357E0],"split_indices":[2,3,0,1,2,0,0,0,5,2,5,8,0,9,1,4,13,9,3,2,2,0,0,0,0,13,13,0,0,0,0,0,0,0,0,0,0,0,0],"split_type":[0,0,0,0,0,0,0,0,0,0,0,0,0,0,0,0,0,0,0,0,0,0,0,0,0,0,0,0,0,0,0,0,0,0,0,0,0,0,0],"sum_hessian":[6.11E2,6.07E2,4E0,1.88E2,4.19E2,1E0,3E0,3E0,1.85E2,2.64E2,1.55E2,1.82E2,3E0,2.6E2,4E0,7E0,1.48E2,1.47E2,3.5E1,2.56E2,4E0,1E0,3E0,4E0,3E0,1.17E2,3.1E1,1.45E2,2E0,1E0,3.4E1,1.05E2,1.51E2,2E0,2E0,1.07E2,1E1,5E0,2.6E1],"tree_param":{"num_deleted":"0","num_feature":"14","num_nodes":"39","size_leaf_vector":"1"}},{"base_weights":[2.71399E-1,-2.9036912E-1,6.852812E1,-6.2024436E0,3.2981994E0,8.5869875E0,3.4222122E1,-2.1207336E1,-5.056952E0,1.8608834E0,8.911298E0,-9.644254E0,-1.4881653E1,-4.7146363E0,-2.1935425E1,2.0809286E0,-9.688916E0,2.184728E1,6.187004E0,3.2958987E-3,-1.6236528E1,-7.415161E0,-2.190599E0,9.7434086E-1,-9.423731E0,3.1289468E0,-5.2823806E0,2.7150757E1,1.1134766E1,1.8207779E1,1.8902663E0,-1.0401856E0,-5.1500173E0,-1.7739998E0,-8.085708E0,1.195247E0,-1.5995451E0,5.00924E-1,6.001186E0,-4.15273E0,1.2018659E0,9.222559E0,3.2754884E0,1.1644531E0,4.137305E0,1.3604688E1,3.4697073E0,-6.090674E-1,5.214961E0],"categories":[],"categories_nodes":[],"categories_segments":[],"categories_sizes":[],"default_left":[0,0,0,0,0,0,0,0,0,0,0,0,0,0,0,0,0,0,0,0,0,0,0,0,0,0,0,0,0,0,0,0,0,0,0,0,0,0,0,0,0,0,0,0,0,0,0,0,0],"id":18,"left_children":[1,3,5,7,9,-1,-1,11,13,15,17,-1,19,21,23,25,-1,27,29,-1,31,33,35,-1,-1,37,39,41,43,45,47,-1,-1,-1,-1,-1,-1,-1,-1,-1,-1,-1,-1,-1,-1,-1,-1,-1,-1],"loss_changes":[2.3486705E4,1.2919715E4,5.822285E3,3.8459922E3,3.0411118E3,0E0,0E0,6.2885693E2,1.1388008E3,2.3445981E3,2.5784194E3,0E0,2.423103E2,1.4287959E3,1.0566683E3,2.3470269E3,0E0,4.362588E2,3.3228403E3,0E0,7.113501E1,2.833457E3,2.1742266E3,0E0,0E0,6.491962E3,3.0768691E3,1.306914E2,6.2068787E1,2.5401675E3,3.0115476E3,0E0,0E0,0E0,0E0,0E0,0E0,0E0,0E0,0E0,0E0,0E0,0E0,0E0,0E0,0E0,0E0,0E0,0E0],"parents":[2147483647,0,0,1,1,2,2,3,3,4,4,7,7,8,8,9,9,10,10,12,12,13,13,14,14,15,15,17,17,18,18,20,20,21,21,22,22,25,25,26,26,27,27,28,28,29,29,30,30],"right_children":[2,4,6,8,10,-1,-1,12,14,16,18,-1,20,22,24,26,-1,28,30,-1,32,34,36,-1,-1,38,40,42,44,46,48,-1,-1,-1,-1,-1,-1,-1,-1,-1,-1,-1,-1,-1,-1,-1,-1,-1,-1],"split_conditions":[1.9548339E0,-1.1333478E-1,1.1011698E0,-1.6548015E0,1.0671558E0,8.5869875E0,3.4222122E1,-1.3376843E0,2.1458654E0,1.0894009E0,1.1210517E0,-9.644254E0,-1.5167105E0,-1.3973114E0,-1.339439E0,8.989147E-1,-9.688916E0,-2.838925E-1,9.495145E-1,3.2958987E-3,-1.672451E0,-1.3759062E0,-9.173195E-1,9.7434086E-1,-9.423731E0,8.150467E-1,1.0968364E0,1.0897214E0,2.7452165E-1,0E0,1.6159029E0,-1.0401856E0,-5.1500173E0,-1.7739998E0,-8.085708E0,1.195247E0,-1.5995451E0,5.00924E-1,6.001186E0,-4.15273E0,1.2018659E0,9.222559E0,3.2754884E0,1.1644531E0,4.137305E0,1.3604688E1,3.4697073E0,-6.090674E-1,5.214961E0],"split_indices":[3,8,4,1,8,0,0,4,11,0,8,0,7,6,2,9,0,4,6,0,3,0,6,0,0,8,6,1,11,13,2,0,0,0,0,0,0,0,0,0,0,0,0,0,0,0,0,0,0],"split_type":[0,0,0,0,0,0,0,0,0,0,0,0,0,0,0,0,0,0,0,0,0,0,0,0,0,0,0,0,0,0,0,0,0,0,0,0,0,0,0,0,0,0,0,0,0,0,0,0,0],"sum_hessian":[6.11E2,6.07E2,4E0,2.29E2,3.78E2,3E0,1E0,1.5E1,2.14E2,3.02E2,7.6E1,4E0,1.1E1,2.11E2,3E0,3.01E2,1E0,1.2E1,6.4E1,1E0,1E1,1.01E2,1.1E2,1E0,2E0,2.64E2,3.7E1,7E0,5E0,1.6E1,4.8E1,1E0,9E0,9.5E1,6E0,3.7E1,7.3E1,2.44E2,2E1,1.9E1,1.8E1,5E0,2E0,2E0,3E0,2E0,1.4E1,3.9E1,9E0],"tree_param":{"num_deleted":"0","num_feature":"14","num_nodes":"49","size_leaf_vector":"1"}},{"base_weights":[2.5794333E-1,-2.0525801E-1,5.653164E1,-5.3415127E0,2.1065452E0,6.654932E0,2.908887E1,-4.499903E0,-2.3820435E1,8.8659227E-1,6.6337123E0,-5.598187E0,1.3082342E1,-1.3597376E1,-1.8530273E0,1.2138553E0,-2.6252441E1,1.7252254E1,4.7548194E0,-5.0323043E0,-1.0739649E1,2.9526611E1,-5.542318E0,3.9303956E0,-2.660083E0,1.8985647E0,-7.9783034E0,-1.0008302E1,-7.390137E-1,2.9123745E1,2.916155E0,3.5466075E0,6.4331255E0,-3.4252076E0,-8.341605E-1,1.0454386E1,4.379883E-1,-5.0899296E0,3.4611819E0,1.6353819E-1,3.5280802E0,-3.809131E0,2.252344E0,-3.0984375E0,1.1226124E1,-6.514454E-1,3.127051E0,2.4743783E0,-7.2056997E-1],"categories":[],"categories_nodes":[],"categories_segments":[],"categories_sizes":[],"default_left":[0,0,0,0,0,0,0,0,0,0,0,0,0,0,0,0,0,0,0,0,0,0,0,0,0,0,0,0,0,0,0,0,0,0,0,0,0,0,0,0,0,0,0,0,0,0,0,0,0],"id":19,"left_children":[1,3,5,7,9,-1,-1,11,13,15,17,19,21,-1,23,25,27,29,31,33,-1,35,37,-1,-1,39,41,-1,-1,43,45,47,-1,-1,-1,-1,-1,-1,-1,-1,-1,-1,-1,-1,-1,-1,-1,-1,-1],"loss_changes":[1.5964026E4,7.2306504E3,4.792834E3,2.832144E3,2.31375E3,0E0,0E0,3.587711E3,3.6951367E3,2.9805586E3,1.6936167E3,2.7593345E3,3.532604E3,0E0,6.4061127E2,2.0858594E3,5.9424316E2,2.1275522E3,1.4765573E3,2.412457E3,0E0,8.4523584E2,1.3664613E3,0E0,0E0,4.0911787E3,1.7760726E3,0E0,0E0,2.6777148E3,2.899972E2,2.061317E3,0E0,0E0,0E0,0E0,0E0,0E0,0E0,0E0,0E0,0E0,0E0,0E0,0E0,0E0,0E0,0E0,0E0],"parents":[2147483647,0,0,1,1,2,2,3,3,4,4,7,7,8,8,9,9,10,10,11,11,12,12,14,14,15,15,16,16,17,17,18,18,19,19,21,21,22,22,25,25,26,26,29,29,30,30,31,31],"right_children":[2,4,6,8,10,-1,-1,12,14,16,18,20,22,-1,24,26,28,30,32,34,-1,36,38,-1,-1,40,42,-1,-1,44,46,48,-1,-1,-1,-1,-1,-1,-1,-1,-1,-1,-1,-1,-1,-1,-1,-1,-1],"split_conditions":[1.9548339E0,-5.1608413E-1,1.1011698E0,-6.8412715E-1,9.848951E-1,6.654932E0,2.908887E1,-7.8736085E-1,-5.4374814E-1,1.0871542E0,8.8782555E-1,-7.258976E-2,-7.0899373E-1,-1.3597376E1,-3.5968617E-1,8.989147E-1,1.1926E0,-1.6112381E-1,1.9684894E0,-1.56901E0,-1.0739649E1,-2.5727817E-1,-7.09834E-1,3.9303956E0,-2.660083E0,7.7978677E-1,2.1609607E-1,-1.0008302E1,-7.390137E-1,-5.32668E-1,1.3184392E0,4.653621E-1,6.4331255E0,-3.4252076E0,-8.341605E-1,1.0454386E1,4.379883E-1,-5.0899296E0,3.4611819E0,1.6353819E-1,3.5280802E0,-3.809131E0,2.252344E0,-3.0984375E0,1.1226124E1,-6.514454E-1,3.127051E0,2.4743783E0,-7.2056997E-1],"split_indices":[3,3,4,3,9,0,0,0,3,5,6,9,5,0,4,9,0,4,6,3,0,4,3,0,0,3,11,0,0,4,10,12,0,0,0,0,0,0,0,0,0,0,0,0,0,0,0,0,0],"split_type":[0,0,0,0,0,0,0,0,0,0,0,0,0,0,0,0,0,0,0,0,0,0,0,0,0,0,0,0,0,0,0,0,0,0,0,0,0,0,0,0,0,0,0,0,0,0,0,0,0],"sum_hessian":[6.11E2,6.07E2,4E0,1.88E2,4.19E2,3E0,1E0,1.81E2,7E0,3.31E2,8.8E1,1.71E2,1E1,3E0,4E0,3.28E2,3E0,1.2E1,7.6E1,1.69E2,2E0,5E0,5E0,1E0,3E0,3.06E2,2.2E1,2E0,1E0,6E0,6E0,7.2E1,4E0,4.3E1,1.26E2,4E0,1E0,3E0,2E0,2.7E2,3.6E1,1.7E1,5E0,1E0,5E0,4E0,2E0,4E1,3.2E1],"tree_param":{"num_deleted":"0","num_feature":"14","num_nodes":"49","size_leaf_vector":"1"}},{"base_weights":[2.2616398E-1,-1.7619686E-1,4.910801E1,-2.8711362E0,2.1484182E0,2.4725538E1,6.052735E0,-7.2070866E0,-2.557584E0,-8.384428E0,2.5762866E0,-5.208904E0,-1.4466454E0,3.0179036E0,-1.0731934E1,8.760535E0,1.8460517E0,-3.755368E0,-6.0738072E0,-8.541391E-1,-9.812763E0,-3.5332033E-1,1.711377E0,-2.559204E0,-4.043042E0,1.3546875E0,1.8714565E1,-1.4409993E1,2.1902611E0,-1.3976902E0,1.7451313E0,-3.5687834E-1,9.180762E0,-5.1176367E0,-1.4090658E0,-1.9033693E0,1.3195313E0,3.400547E0,-2.352486E0,-3.4135044E-1,1.0123829E1,-1.7629395E-1,-8.410938E0,2.2786525E-1,1.7353762E0],"categories":[],"categories_nodes":[],"categories_segments":[],"categories_sizes":[],"default_left":[0,0,0,0,0,0,0,0,0,0,0,0,0,0,0,0,0,0,0,0,0,0,0,0,0,0,0,0,0,0,0,0,0,0,0,0,0,0,0,0,0,0,0,0,0],"id":20,"left_children":[1,3,5,7,9,-1,-1,-1,11,13,15,17,19,21,23,25,27,29,-1,31,33,-1,-1,35,-1,37,39,41,43,-1,-1,-1,-1,-1,-1,-1,-1,-1,-1,-1,-1,-1,-1,-1,-1],"loss_changes":[1.2045555E4,3.8151038E3,3.155871E3,1.8088967E3,1.4952827E3,0E0,0E0,0E0,8.142462E2,3.8035956E2,1.4063533E3,1.7162427E3,9.731002E2,4.0535583E1,2.1227417E2,2.4073425E3,1.6150834E3,6.8447705E2,0E0,1.9991335E3,4.0178394E2,0E0,0E0,1.3325487E2,0E0,1.9245549E3,4.216164E3,1.1136228E3,1.4252047E3,0E0,0E0,0E0,0E0,0E0,0E0,0E0,0E0,0E0,0E0,0E0,0E0,0E0,0E0,0E0,0E0],"parents":[2147483647,0,0,1,1,2,2,3,3,4,4,8,8,9,9,10,10,11,11,12,12,13,13,14,14,15,15,16,16,17,17,19,19,20,20,23,23,25,25,26,26,27,27,28,28],"right_children":[2,4,6,8,10,-1,-1,-1,12,14,16,18,20,22,24,26,28,30,-1,32,34,-1,-1,36,-1,38,40,42,44,-1,-1,-1,-1,-1,-1,-1,-1,-1,-1,-1,-1,-1,-1,-1,-1],"split_conditions":[1.8388549E0,1.2690344E-1,1.7641318E0,-1.6921558E0,-7.8541166E-1,2.4725538E1,6.052735E0,-7.2070866E0,-1.4689658E0,-6.778817E-1,-6.5264314E-1,-1.4694827E0,1.3335569E0,6.6543007E-1,7.122142E-1,-6.929903E-1,-6.3268405E-1,-1.4786981E0,-6.0738072E0,1.1684879E0,-1.0180197E0,-3.5332033E-1,1.711377E0,3.4572816E-1,-4.043042E0,-7.4698466E-1,8.400191E-1,8.104406E-1,9.848951E-1,-1.3976902E0,1.7451313E0,-3.5687834E-1,9.180762E0,-5.1176367E0,-1.4090658E0,-1.9033693E0,1.3195313E0,3.400547E0,-2.352486E0,-3.4135044E-1,1.0123829E1,-1.7629395E-1,-8.410938E0,2.2786525E-1,1.7353762E0],"split_indices":[2,3,0,1,11,0,0,0,3,4,11,8,11,0,5,11,11,9,0,11,3,0,0,0,0,11,10,0,9,0,0,0,0,0,0,0,0,0,0,0,0,0,0,0,0],"split_type":[0,0,0,0,0,0,0,0,0,0,0,0,0,0,0,0,0,0,0,0,0,0,0,0,0,0,0,0,0,0,0,0,0,0,0,0,0,0,0,0,0,0,0,0,0],"sum_hessian":[6.11E2,6.07E2,4E0,2.81E2,3.26E2,1E0,3E0,3E0,2.78E2,1.2E1,3.14E2,8.1E1,1.97E2,2E0,1E1,3.2E1,2.82E2,7.5E1,6E0,1.85E2,1.2E1,1E0,1E0,3E0,7E0,1.9E1,1.3E1,5E0,2.77E2,6.9E1,6E0,1.84E2,1E0,4E0,8E0,2E0,1E0,9E0,1E1,6E0,7E0,3E0,2E0,1.99E2,7.8E1],"tree_param":{"num_deleted":"0","num_feature":"14","num_nodes":"45","size_leaf_vector":"1"}},{"base_weights":[1.928679E-1,-1.3917942E-1,4.053125E1,-3.8895698E0,7.624198E-1,2.10167E1,4.6908693E0,-5.5855045E0,-3.3434422E0,6.156164E-1,1.4908594E1,-2.7057753E0,-1.6830957E1,1.0520703E1,4.0710908E-1,1.3347657E0,6.1195316E0,-3.0256946E0,4.8728027E0,-5.65362E0,-1.315979E0,-3.5594728E0,1.760022E1,-1.3794434E1,7.090458E-1,-5.25353E-1,-2.008701E0,7.1480274E0,1.6250978E0,-1.0143458E0,-6.051929E0,4.0016456E0,1.2988324E-1],"categories":[],"categories_nodes":[],"categories_segments":[],"categories_sizes":[],"default_left":[0,0,0,0,0,0,0,0,0,0,0,0,0,0,0,0,0,0,0,0,0,0,0,0,0,0,0,0,0,0,0,0,0],"id":21,"left_children":[1,3,5,7,9,-1,-1,-1,11,13,15,17,19,21,23,-1,-1,25,-1,-1,-1,-1,27,29,31,-1,-1,-1,-1,-1,-1,-1,-1],"loss_changes":[8.202923E3,2.0588257E3,2.5796475E3,8.869182E2,1.0104853E3,0E0,0E0,0E0,9.4352136E2,1.00150964E3,1.9634448E2,7.220247E2,4.267505E1,1.793618E3,2.0594292E3,0E0,0E0,5.027942E2,0E0,0E0,0E0,0E0,4.7780518E2,5.960198E2,1.6296757E3,0E0,0E0,0E0,0E0,0E0,0E0,0E0,0E0],"parents":[2147483647,0,0,1,1,2,2,3,3,4,4,8,8,9,9,10,10,11,11,12,12,13,13,14,14,17,17,22,22,23,23,24,24],"right_children":[2,4,6,8,10,-1,-1,-1,12,14,16,18,20,22,24,-1,-1,26,-1,-1,-1,-1,28,30,32,-1,-1,-1,-1,-1,-1,-1,-1],"split_conditions":[1.8388549E0,-1.3971814E0,1.7641318E0,-1.6921558E0,1.9684894E0,2.10167E1,4.6908693E0,-5.5855045E0,2.1083179E-1,-1.3886244E0,1.3977256E0,-1.2434651E0,-1.481783E0,-1.5795807E0,-1.4514501E0,1.3347657E0,6.1195316E0,-1.4639257E0,4.8728027E0,-5.65362E0,-1.315979E0,-3.5594728E0,-9.137794E-1,-1.0334184E0,-1.4043167E0,-5.25353E-1,-2.008701E0,7.1480274E0,1.6250978E0,-1.0143458E0,-6.051929E0,4.0016456E0,1.2988324E-1],"split_indices":[2,3,0,1,6,0,0,0,12,8,1,6,2,6,7,0,0,8,0,0,0,0,4,0,7,0,0,0,0,0,0,0,0],"split_type":[0,0,0,0,0,0,0,0,0,0,0,0,0,0,0,0,0,0,0,0,0,0,0,0,0,0,0,0,0,0,0,0,0],"sum_hessian":[6.11E2,6.07E2,4E0,1.17E2,4.9E2,1E0,3E0,3E0,1.14E2,4.86E2,4E0,1.1E2,4E0,9E0,4.77E2,2E0,2E0,1.09E2,1E0,3E0,1E0,2E0,7E0,9E0,4.68E2,8.2E1,2.7E1,4E0,3E0,4E0,5E0,9E0,4.59E2],"tree_param":{"num_deleted":"0","num_feature":"14","num_nodes":"33","size_leaf_vector":"1"}},{"base_weights":[1.7623682E-1,-1.0778086E-1,3.467754E1,-1.5207845E0,1.6432854E0,4.071973E0,1.786421E1,-9.338409E0,-1.1276082E0,1.9449804E1,1.3049426E0,-1.4873047E-1,-1.2389241E1,-8.960554E-1,-8.262451E0,9.6723634E-1,6.810059E0,1.0513753E1,8.698816E-1,-4.173279E0,2.3924196E0,-1.3710804E1,3.221924E-1,-5.893161E-1,-6.55307E0,-5.633138E-1,-1.0116821E1,-9.151855E0,1.8085829E1,4.7466593E0,-2.3383084E-1,-8.188477E-2,-1.6147218E0,-5.1056886E0,-2.4352539E0,-9.468439E-1,7.2720096E-2,-6.8923097E0,-2.9888448E-1,-2.0427246E-1,-4.921875E-2,7.763672E-3,-3.4708426E0,-2.8666994E-1,-3.469629E0,2.3111572E0,6.5978518E0,-5.0088567E-1,3.2997777E0,-4.340652E0,1.7616318E-1],"categories":[],"categories_nodes":[],"categories_segments":[],"categories_sizes":[],"default_left":[0,0,0,0,0,0,0,0,0,0,0,0,0,0,0,0,0,0,0,0,0,0,0,0,0,0,0,0,0,0,0,0,0,0,0,0,0,0,0,0,0,0,0,0,0,0,0,0,0,0,0],"id":22,"left_children":[1,3,5,7,9,-1,-1,11,13,15,17,19,21,23,25,-1,-1,27,29,31,-1,33,-1,35,37,39,41,43,45,47,49,-1,-1,-1,-1,-1,-1,-1,-1,-1,-1,-1,-1,-1,-1,-1,-1,-1,-1,-1,-1],"loss_changes":[6.0007134E3,1.5068511E3,1.8160498E3,1.0253086E3,1.61334E3,0E0,0E0,4.4673596E2,5.2457043E2,1.9051074E2,1.0645679E3,1.9674709E2,2.2823499E2,5.3926465E2,1.3707153E2,0E0,0E0,1.9524327E3,1.1007738E3,1.7394844E1,0E0,6.538672E1,0E0,6.3695776E2,1.4371058E3,2.9137671E-2,1.18170044E2,6.807785E1,1.9563232E2,2.3051145E3,2.3576902E3,0E0,0E0,0E0,0E0,0E0,0E0,0E0,0E0,0E0,0E0,0E0,0E0,0E0,0E0,0E0,0E0,0E0,0E0,0E0,0E0],"parents":[2147483647,0,0,1,1,2,2,3,3,4,4,7,7,8,8,9,9,10,10,11,11,12,12,13,13,14,14,17,17,18,18,19,19,21,21,23,23,24,24,25,25,26,26,27,27,28,28,29,29,30,30],"right_children":[2,4,6,8,10,-1,-1,12,14,16,18,20,22,24,26,-1,-1,28,30,32,-1,34,-1,36,38,40,42,44,46,48,50,-1,-1,-1,-1,-1,-1,-1,-1,-1,-1,-1,-1,-1,-1,-1,-1,-1,-1,-1,-1],"split_conditions":[1.9548339E0,3.4016976E-1,1.1011698E0,-1.6393946E0,3.3451065E-1,4.071973E0,1.786421E1,-1.0059221E0,8.077938E-1,3.3616796E-1,1.353741E-1,-1.6477499E0,-1.4483392E0,2.3612707E0,2.4017388E-1,9.6723634E-1,6.810059E0,5.1588875E-1,-5.4252857E-1,-1.6579611E0,2.3924196E0,-1.5738943E0,3.221924E-1,-1.047997E0,5.9015125E-1,2.9703033E-1,8.722485E-1,1.3420475E-1,5.7124406E-1,7.455901E-1,-4.821135E-1,-8.188477E-2,-1.6147218E0,-5.1056886E0,-2.4352539E0,-9.468439E-1,7.2720096E-2,-6.8923097E0,-2.9888448E-1,-2.0427246E-1,-4.921875E-2,7.763672E-3,-3.4708426E0,-2.8666994E-1,-3.469629E0,2.3111572E0,6.5978518E0,-5.0088567E-1,3.2997777E0,-4.340652E0,1.7616318E-1],"split_indices":[3,3,4,6,1,0,0,12,10,0,6,0,8,13,1,0,0,2,13,0,0,3,0,13,7,0,7,0,0,3,13,0,0,0,0,0,0,0,0,0,0,0,0,0,0,0,0,0,0,0,0],"split_type":[0,0,0,0,0,0,0,0,0,0,0,0,0,0,0,0,0,0,0,0,0,0,0,0,0,0,0,0,0,0,0,0,0,0,0,0,0,0,0,0,0,0,0,0,0,0,0,0,0,0,0],"sum_hessian":[6.11E2,6.07E2,4E0,3.36E2,2.71E2,3E0,1E0,1.5E1,3.21E2,4E0,2.67E2,4E0,1.1E1,3.12E2,9E0,1E0,3E0,1.1E1,2.56E2,3E0,1E0,1E1,1E0,2.97E2,1.5E1,2E0,7E0,3E0,8E0,5.6E1,2E2,1E0,2E0,5E0,5E0,7.2E1,2.25E2,3E0,1.2E1,1E0,1E0,1E0,6E0,1E0,2E0,3E0,5E0,2.8E1,2.8E1,1E1,1.9E2],"tree_param":{"num_deleted":"0","num_feature":"14","num_nodes":"51","size_leaf_vector":"1"}},{"base_weights":[1.4830387E-1,-8.9668274E-2,2.9056055E1,-7.664215E0,1.1485519E-1,1.5184571E1,3.3037355E0,-2.319336E-3,-9.432166E0,-8.558819E-2,7.348694E0,9.4705814E-1,-2.107666E0,-6.9616705E-2,-1.0179504E1,6.807362E-2,-2.2153076E1,-2.4259982E0,1.7426636E1,-7.842774E-1,-1.6417237E-1,-3.5777018E0,-3.7057495E0,-9.632096E-2,1.882832E1,-7.512891E0,-2.0225098E0,-7.381836E0,2.9838867E0,-6.328125E-2,1.9976423E1,-2.5913087E-1,-1.3095459E0,2.9392155E-2,-4.7294784E0,1.0921436E1,1.5999024E0,-3.304219E0,3.397461E-1,6.946758E0,2.4055665E0],"categories":[],"categories_nodes":[],"categories_segments":[],"categories_sizes":[],"default_left":[0,0,0,0,0,0,0,0,0,0,0,0,0,0,0,0,0,0,0,0,0,0,0,0,0,0,0,0,0,0,0,0,0,0,0,0,0,0,0,0,0],"id":23,"left_children":[1,3,5,7,9,-1,-1,11,13,15,17,-1,19,-1,21,23,25,27,29,-1,-1,-1,31,33,35,-1,-1,37,-1,-1,39,-1,-1,-1,-1,-1,-1,-1,-1,-1,-1],"loss_changes":[4.2126997E3,9.427772E2,1.3876284E3,2.1671185E2,8.604642E2,0E0,0E0,3.3258278E1,8.7020386E1,1.9614657E3,1.6184175E3,0E0,9.408655E-1,0E0,9.145764E1,1.7751614E3,9.31665E0,6.252572E2,3.6399023E2,0E0,0E0,0E0,3.7255592E0,1.7398563E3,9.918523E2,0E0,0E0,2.2895496E2,0E0,0E0,8.0458496E1,0E0,0E0,0E0,0E0,0E0,0E0,0E0,0E0,0E0,0E0],"parents":[2147483647,0,0,1,1,2,2,3,3,4,4,7,7,8,8,9,9,10,10,12,12,14,14,15,15,16,16,17,17,18,18,22,22,23,23,24,24,27,27,30,30],"right_children":[2,4,6,8,10,-1,-1,12,14,16,18,-1,20,-1,22,24,26,28,30,-1,-1,-1,32,34,36,-1,-1,38,-1,-1,40,-1,-1,-1,-1,-1,-1,-1,-1,-1,-1],"split_conditions":[1.8388549E0,-1.6548015E0,1.7641318E0,-1.4780983E0,1.6167523E0,1.5184571E1,3.3037355E0,-1.6511531E0,-1.7226045E0,1.7641318E0,1.5332937E0,9.4705814E-1,-1.6477499E0,-6.9616705E-2,-1.6609356E0,1.886343E0,1.9568003E0,6.4434546E-1,-6.103213E-1,-7.842774E-1,-1.6417237E-1,-3.5777018E0,-1.6579611E0,1.8136234E0,8.8782555E-1,-7.512891E0,-2.0225098E0,1.4941194E0,2.9838867E0,-6.328125E-2,1.7516495E0,-2.5913087E-1,-1.3095459E0,2.9392155E-2,-4.7294784E0,1.0921436E1,1.5999024E0,-3.304219E0,3.397461E-1,6.946758E0,2.4055665E0],"split_indices":[2,1,0,7,9,0,0,0,10,0,2,0,0,0,1,7,0,4,4,0,0,0,0,7,6,0,0,10,0,0,9,0,0,0,0,0,0,0,0,0,0],"split_type":[0,0,0,0,0,0,0,0,0,0,0,0,0,0,0,0,0,0,0,0,0,0,0,0,0,0,0,0,0,0,0,0,0,0,0,0,0,0,0,0,0],"sum_hessian":[6.11E2,6.07E2,4E0,1.5E1,5.92E2,1E0,3E0,3E0,1.2E1,5.77E2,1.5E1,1E0,2E0,1E0,1.1E1,5.74E2,3E0,8E0,7E0,1E0,1E0,8E0,3E0,5.7E2,4E0,2E0,1E0,6E0,2E0,1E0,6E0,1E0,2E0,5.64E2,6E0,1E0,3E0,4E0,2E0,4E0,2E0],"tree_param":{"num_deleted":"0","num_feature":"14","num_nodes":"41","size_leaf_vector":"1"}},{"base_weights":[1.3800009E-1,-5.8764007E-2,2.4036915E1,-4.5142E-1,3.672481E0,1.2906885E1,2.5604005E0,-1.307801E-1,-1.7784962E1,1.1285374E1,2.4066311E-1,-4.2965823E-1,1.7617188E1,-2.1436646E1,-2.1188152E0,-1.7307618E0,1.3777771E1,-7.5671997E0,5.0362453E0,2.4542069E-2,-3.8878372E0,6.856592E0,5.355713E0,-8.078614E-1,-2.3729631E1,-8.222168E-1,-1.3125001E-1,1.0570443E1,9.2831545E0,-1.3595478E1,1.3916504E1,-7.7089844E0,8.437919E0,-1.5841734E-1,8.571842E0,-8.462637E0,2.3231317E-1,1.9877931E0,2.3173828E-1,-7.5990725E0,-2.1188965E0,3.458451E0,8.69043E-1,3.4461915E0,-4.9928956E0,-5.375977E-2,5.602442E0,1.7390625E-1,-7.372852E0,-1.3739747E0,3.837671E0],"categories":[],"categories_nodes":[],"categories_segments":[],"categories_sizes":[],"default_left":[0,0,0,0,0,0,0,0,0,0,0,0,0,0,0,0,0,0,0,0,0,0,0,0,0,0,0,0,0,0,0,0,0,0,0,0,0,0,0,0,0,0,0,0,0,0,0,0,0,0,0],"id":24,"left_children":[1,3,5,7,9,-1,-1,11,13,15,17,19,21,23,25,-1,27,29,31,33,35,-1,37,-1,39,-1,-1,41,-1,43,45,47,49,-1,-1,-1,-1,-1,-1,-1,-1,-1,-1,-1,-1,-1,-1,-1,-1,-1,-1],"loss_changes":[2.8793108E3,8.9243604E2,1.1044443E3,3.0600356E3,1.5125956E3,0E0,0E0,2.8825977E3,5.2665796E2,8.446094E2,1.5732836E3,8.3885236E2,4.5563696E2,2.7993286E2,1.9378014E0,0E0,5.538257E2,2.2613572E3,1.1922805E3,7.477027E3,7.0519927E3,0E0,1.8169441E1,0E0,7.830078E0,0E0,0E0,7.684375E1,0E0,1.1849026E3,2.7163287E2,8.5308594E2,1.2489469E3,0E0,0E0,0E0,0E0,0E0,0E0,0E0,0E0,0E0,0E0,0E0,0E0,0E0,0E0,0E0,0E0,0E0,0E0],"parents":[2147483647,0,0,1,1,2,2,3,3,4,4,7,7,8,8,9,9,10,10,11,11,12,12,13,13,14,14,16,16,17,17,18,18,19,19,20,20,22,22,24,24,27,27,29,29,30,30,31,31,32,32],"right_children":[2,4,6,8,10,-1,-1,12,14,16,18,20,22,24,26,-1,28,30,32,34,36,-1,38,-1,40,-1,-1,42,-1,44,46,48,50,-1,-1,-1,-1,-1,-1,-1,-1,-1,-1,-1,-1,-1,-1,-1,-1,-1,-1],"split_conditions":[1.8388549E0,1.1478531E0,1.7641318E0,1.1012996E0,1.1694407E0,1.2906885E1,2.5604005E0,1.0768795E0,1.5981218E0,9.381512E-1,1.0522803E0,8.195063E-1,1.1451595E0,-7.4267894E-1,1.0700138E0,-1.7307618E0,1.4769582E0,1.6159029E0,7.9450375E-1,7.909411E-1,8.3744085E-1,6.856592E0,1.1170819E0,-8.078614E-1,1.1334121E0,-8.222168E-1,-1.3125001E-1,1.3322865E0,9.2831545E0,-6.098132E-1,-6.103213E-1,1.3572984E0,1.3374331E0,-1.5841734E-1,8.571842E0,-8.462637E0,2.3231317E-1,1.9877931E0,2.3173828E-1,-7.5990725E0,-2.1188965E0,3.458451E0,8.69043E-1,3.4461915E0,-4.9928956E0,-5.375977E-2,5.602442E0,1.7390625E-1,-7.372852E0,-1.3739747E0,3.837671E0],"split_indices":[2,3,0,3,0,0,0,3,6,0,12,3,9,11,0,0,7,2,13,3,3,0,2,0,3,0,0,3,0,4,4,0,2,0,0,0,0,0,0,0,0,0,0,0,0,0,0,0,0,0,0],"split_type":[0,0,0,0,0,0,0,0,0,0,0,0,0,0,0,0,0,0,0,0,0,0,0,0,0,0,0,0,0,0,0,0,0,0,0,0,0,0,0,0,0,0,0,0,0,0,0,0,0,0,0],"sum_hessian":[6.11E2,6.07E2,4E0,5.5E2,5.7E1,1E0,3E0,5.41E2,9E0,1.7E1,4E1,5.33E2,8E0,7E0,2E0,2E0,1.5E1,1.5E1,2.5E1,4.72E2,6.1E1,5E0,3E0,1E0,6E0,1E0,1E0,1.4E1,1E0,1.2E1,3E0,5E0,2E1,4.64E2,8E0,9E0,5.2E1,2E0,1E0,5E0,1E0,1.2E1,2E0,1E0,1.1E1,1E0,2E0,4E0,1E0,5E0,1.5E1],"tree_param":{"num_deleted":"0","num_feature":"14","num_nodes":"51","size_leaf_vector":"1"}},{"base_weights":[1.3633658E-1,-2.657519E-2,1.991914E1,-1.0061715E0,1.0300084E0,1.0970801E1,6.614258E0,-8.297634E0,-7.898425E-1,8.607805E0,6.4744E-1,2.3421876E0,4.5527345E-1,-2.5222778E0,-8.175074E0,-5.4288626E-1,-6.3520885E0,-3.6681316E0,1.58353405E1,-1.5313803E-1,3.8524868E0,-2.5889063E0,5.7425537E0,-1.0426451E0,3.0954454E0,-6.548291E0,-1.5540217E0,1.3725586E0,-2.7499022E0,9.5053715E-1,5.1067934E0,1.5049878E0,-4.00359E0,1.2884358E1,1.3583767E0,2.4373536E0,-2.1049805E-1,-1.7831656E-1,-2.5063283E0,-3.994043E0,1.183397E0,-1.9068116E0,1.0520997E0,-2.2426759E-1,6.9853514E-1,2.9363596E-1,6.4557133E0,-3.3698983E0,4.0134525E-1,1.0600865E0,6.493848E0,-1.6894044E0,1.3121796E0],"categories":[],"categories_nodes":[],"categories_segments":[],"categories_sizes":[],"default_left":[0,0,0,0,0,0,0,0,0,0,0,0,0,0,0,0,0,0,0,0,0,0,0,0,0,0,0,0,0,0,0,0,0,0,0,0,0,0,0,0,0,0,0,0,0,0,0,0,0,0,0,0,0],"id":25,"left_children":[1,3,5,7,9,-1,11,13,15,17,19,-1,-1,21,-1,23,25,27,29,31,33,-1,35,37,39,-1,41,43,-1,-1,-1,45,47,49,51,-1,-1,-1,-1,-1,-1,-1,-1,-1,-1,-1,-1,-1,-1,-1,-1,-1,-1],"loss_changes":[1.9729146E3,6.3033185E2,8.657655E2,4.918903E2,8.438416E2,0E0,1.2473877E1,9.1639014E2,4.1962997E2,1.3002328E3,7.190392E2,0E0,0E0,4.5337012E2,0E0,5.414408E2,9.3136475E2,1.7886996E2,8.141943E1,1.4425458E3,1.2439812E3,0E0,6.710002E1,8.5047595E2,5.541642E2,0E0,2.8962476E2,9.847064E0,0E0,0E0,0E0,1.6429022E3,2.6408608E3,9.06662E2,9.731366E2,0E0,0E0,0E0,0E0,0E0,0E0,0E0,0E0,0E0,0E0,0E0,0E0,0E0,0E0,0E0,0E0,0E0,0E0],"parents":[2147483647,0,0,1,1,2,2,3,3,4,4,6,6,7,7,8,8,9,9,10,10,13,13,15,15,16,16,17,17,18,18,19,19,20,20,22,22,23,23,24,24,26,26,27,27,31,31,32,32,33,33,34,34],"right_children":[2,4,6,8,10,-1,12,14,16,18,20,-1,-1,22,-1,24,26,28,30,32,34,-1,36,38,40,-1,42,44,-1,-1,-1,46,48,50,52,-1,-1,-1,-1,-1,-1,-1,-1,-1,-1,-1,-1,-1,-1,-1,-1,-1,-1],"split_conditions":[1.8388549E0,2.4409689E-1,1.7641318E0,-1.3376843E0,1.353741E-1,1.0970801E1,1.9548339E0,-8.137775E-1,1.3184935E0,-3.199355E-1,9.40453E-1,2.3421876E0,4.5527345E-1,-1.6625704E0,-8.175074E0,3.1431603E-1,-9.975746E-1,4.806043E-1,-6.710524E-1,1.7972188E-1,1.072472E0,-2.5889063E0,-1.3540814E0,2.3238488E-1,-1.3973114E0,-6.548291E0,2.3433812E0,1.3420475E-1,-2.7499022E0,9.5053715E-1,5.1067934E0,1.1718537E0,9.5771086E-1,8.88161E-1,9.37062E-2,2.4373536E0,-2.1049805E-1,-1.7831656E-1,-2.5063283E0,-3.994043E0,1.183397E0,-1.9068116E0,1.0520997E0,-2.2426759E-1,6.9853514E-1,2.9363596E-1,6.4557133E0,-3.3698983E0,4.0134525E-1,1.0600865E0,6.493848E0,-1.6894044E0,1.3121796E0],"split_indices":[2,1,0,4,6,0,3,1,12,7,13,0,0,1,0,12,3,0,12,13,13,0,4,12,6,0,12,0,0,0,0,3,0,2,4,0,0,0,0,0,0,0,0,0,0,0,0,0,0,0,0,0,0],"split_type":[0,0,0,0,0,0,0,0,0,0,0,0,0,0,0,0,0,0,0,0,0,0,0,0,0,0,0,0,0,0,0,0,0,0,0,0,0,0,0,0,0,0,0,0,0,0,0,0,0,0,0,0,0],"sum_hessian":[6.11E2,6.07E2,4E0,3.15E2,2.92E2,1E0,3E0,8E0,3.07E2,1.3E1,2.79E2,2E0,1E0,7E0,1E0,2.95E2,1.2E1,5E0,8E0,2.24E2,5.5E1,4E0,3E0,2.6E2,3.5E1,2E0,1E1,3E0,2E0,1E0,7E0,1.57E2,6.7E1,1.1E1,4.4E1,2E0,1E0,2.46E2,1.4E1,1E0,3.4E1,5E0,5E0,1E0,2E0,1.54E2,3E0,2.8E1,3.9E1,6E0,5E0,1.3E1,3.1E1],"tree_param":{"num_deleted":"0","num_feature":"14","num_nodes":"53","size_leaf_vector":"1"}},{"base_weights":[1.0686019E-1,-2.974982E-2,1.6697266E1,6.739903E-2,-8.380301E0,9.325195E0,5.32959E0,-7.6332994E-2,9.546224E0,-5.2261233E0,2.7548828E0,6.3388675E-1,2.246924E0,-1.632644E-1,1.2786865E1,1.2232747E1,3.1298828E0,-1.2476075E0,1.9336915E0,-6.977256E-2,-9.26709E0,-1.0524902E0,1.9388021E1,6.443848E-1,4.146035E0,1.2945312E0,-6.386719E-2,-5.7453036E-2,5.307276E0,-4.2461915E0,-9.855469E-1,1.8023438E0,6.922266E0],"categories":[],"categories_nodes":[],"categories_segments":[],"categories_sizes":[],"default_left":[0,0,0,0,0,0,0,0,0,0,0,0,0,0,0,0,0,0,0,0,0,0,0,0,0,0,0,0,0,0,0,0,0],"id":26,"left_children":[1,3,5,7,9,-1,11,13,15,-1,17,-1,-1,19,21,23,25,-1,-1,27,29,-1,31,-1,-1,-1,-1,-1,-1,-1,-1,-1,-1],"loss_changes":[1.387543E3,4.938027E2,6.52053E2,8.208999E2,7.5263416E2,0E0,1.1968231E1,6.6630786E2,1.1685181E2,0E0,1.2887067E2,0E0,0E0,5.0237326E2,4.9828668E2,6.636493E1,1.676635E1,0E0,0E0,1.2704037E3,1.2889996E2,0E0,9.340698E0,0E0,0E0,0E0,0E0,0E0,0E0,0E0,0E0,0E0,0E0],"parents":[2147483647,0,0,1,1,2,2,3,3,4,4,6,6,7,7,8,8,10,10,13,13,14,14,15,15,16,16,19,19,20,20,22,22],"right_children":[2,4,6,8,10,-1,12,14,16,-1,18,-1,-1,20,22,24,26,-1,-1,28,30,-1,32,-1,-1,-1,-1,-1,-1,-1,-1,-1,-1],"split_conditions":[1.8388549E0,1.8127341E0,1.7641318E0,1.6926447E0,1.6167523E0,9.325195E0,5.57719E-1,1.886343E0,1.8058926E0,-5.2261233E0,1.8293873E0,6.3388675E-1,2.246924E0,1.545973E0,8.21717E-1,3.055247E-1,1.7500063E0,-1.2476075E0,1.9336915E0,1.4202795E0,2.6451916E-1,-1.0524902E0,9.968229E-1,6.443848E-1,4.146035E0,1.2945312E0,-6.386719E-2,-5.7453036E-2,5.307276E0,-4.2461915E0,-9.855469E-1,1.8023438E0,6.922266E0],"split_indices":[2,0,0,1,9,0,4,7,1,0,0,0,0,1,0,7,0,0,0,3,7,0,0,0,0,0,0,0,0,0,0,0,0],"split_type":[0,0,0,0,0,0,0,0,0,0,0,0,0,0,0,0,0,0,0,0,0,0,0,0,0,0,0,0,0,0,0,0,0],"sum_hessian":[6.11E2,6.07E2,4E0,6.01E2,6E0,1E0,3E0,5.93E2,8E0,3E0,3E0,2E0,1E0,5.9E2,3E0,5E0,3E0,1E0,2E0,5.85E2,5E0,1E0,2E0,1E0,4E0,2E0,1E0,5.82E2,3E0,2E0,3E0,1E0,1E0],"tree_param":{"num_deleted":"0","num_feature":"14","num_nodes":"33","size_leaf_vector":"1"}},{"base_weights":[1.0983536E-1,-5.636918E-3,1.4129297E1,-3.174322E0,2.411379E-1,7.9264164E0,4.4509277E0,3.583217E-1,-1.5221143E1,3.0281025E-1,-1.1413086E1,5.0712895E-1,1.9098634E0,-3.7946565E0,7.678335E0,-6.6657166E0,-9.047887E0,2.1709168E-1,9.825586E0,-5.5431156E0,4.072266E-1,1.8739828E0,-5.4733887E0,1.0376791E0,1.1699036E1,-5.928955E-1,-2.9691286E0,3.46448E-1,-6.2587004E0,1.6479818E1,-1.0384115E-1,-5.655945E-1,1.8785157E0,-9.431904E-1,-2.8824706E0,-1.7292969E0,1.7639283E0,4.4292607E0,5.0070804E-1,1.5482163E0,6.0465407E-2,-5.1163483E0,7.0400393E-1,1.5319337E0,5.8839846E0,-8.945801E-1,8.478516E-1],"categories":[],"categories_nodes":[],"categories_segments":[],"categories_sizes":[],"default_left":[0,0,0,0,0,0,0,0,0,0,0,0,0,0,0,0,0,0,0,0,0,0,0,0,0,0,0,0,0,0,0,0,0,0,0,0,0,0,0,0,0,0,0,0,0,0,0],"id":27,"left_children":[1,3,5,7,9,-1,11,13,15,17,19,-1,-1,21,23,-1,25,27,29,-1,-1,31,33,35,37,-1,-1,39,41,43,45,-1,-1,-1,-1,-1,-1,-1,-1,-1,-1,-1,-1,-1,-1,-1,-1],"loss_changes":[9.908215E2,4.761921E2,4.7723718E2,1.8779675E3,4.0954602E2,0E0,1.0386902E1,1.0931317E3,2.3096362E2,4.5743195E2,2.9571237E2,0E0,0E0,2.2912796E2,3.349613E2,0E0,2.2476807E1,4.7043402E2,3.3207483E2,0E0,0E0,1.1077413E2,1.4316437E2,2.3150793E2,2.2130725E2,0E0,0E0,3.819269E2,1.0619423E3,6.7599487E0,3.3726E1,0E0,0E0,0E0,0E0,0E0,0E0,0E0,0E0,0E0,0E0,0E0,0E0,0E0,0E0,0E0,0E0],"parents":[2147483647,0,0,1,1,2,2,3,3,4,4,6,6,7,7,8,8,9,9,10,10,13,13,14,14,16,16,17,17,18,18,21,21,22,22,23,23,24,24,27,27,28,28,29,29,30,30],"right_children":[2,4,6,8,10,-1,12,14,16,18,20,-1,-1,22,24,-1,26,28,30,-1,-1,32,34,36,38,-1,-1,40,42,44,46,-1,-1,-1,-1,-1,-1,-1,-1,-1,-1,-1,-1,-1,-1,-1,-1],"split_conditions":[1.8388549E0,-1.56901E0,1.7641318E0,-1.584134E0,1.7542433E0,7.9264164E0,5.57719E-1,-1.6155468E0,-1.5779122E0,1.886343E0,1.8293873E0,5.0712895E-1,1.9098634E0,-1.4780983E0,-1.5986372E0,-6.6657166E0,-1.5914187E0,1.6727054E0,-3.0771494E-1,-5.5431156E0,4.072266E-1,-1.6428455E0,-1.2666312E0,-1.5817498E0,-1.5804919E0,-5.928955E-1,-2.9691286E0,-1.5102817E0,1.1926E0,9.968229E-1,8.21717E-1,-5.655945E-1,1.8785157E0,-9.431904E-1,-2.8824706E0,-1.7292969E0,1.7639283E0,4.4292607E0,5.0070804E-1,1.5482163E0,6.0465407E-2,-5.1163483E0,7.0400393E-1,1.5319337E0,5.8839846E0,-8.945801E-1,8.478516E-1],"split_indices":[2,3,0,3,2,0,4,3,8,7,0,0,0,7,9,0,1,7,11,0,0,3,4,2,0,0,0,3,0,0,0,0,0,0,0,0,0,0,0,0,0,0,0,0,0,0,0],"split_type":[0,0,0,0,0,0,0,0,0,0,0,0,0,0,0,0,0,0,0,0,0,0,0,0,0,0,0,0,0,0,0,0,0,0,0,0,0,0,0,0,0,0,0,0,0,0,0],"sum_hessian":[6.11E2,6.07E2,4E0,4.3E1,5.64E2,1E0,3E0,3.4E1,9E0,5.62E2,2E0,2E0,1E0,2.2E1,1.2E1,3E0,6E0,5.58E2,4E0,1E0,1E0,5E0,1.7E1,5E0,7E0,1E0,5E0,5.48E2,1E1,2E0,2E0,3E0,2E0,1.2E1,5E0,2E0,3E0,5E0,2E0,1.5E1,5.33E2,4E0,6E0,1E0,1E0,1E0,1E0],"tree_param":{"num_deleted":"0","num_feature":"14","num_nodes":"47","size_leaf_vector":"1"}},{"base_weights":[8.007972E-2,-1.7741956E-2,1.195918E1,-4.8520355E0,1.12724215E-1,6.7374024E0,3.7199707E0,8.352539E-1,-6.8174033E0,1.6235021E-1,-9.701172E0,4.0576175E-1,1.6233399E0,-1.3291016E0,1.4239014E0,-7.6307926E0,3.1948245E-1,9.231718E-2,8.351758E0,-4.71167E0,3.461426E-1,1.4139405E-1,-6.2590337E-1,-8.5332644E-1,-9.070129E0,-3.041265E-1,1.5163155E0,1.40078125E1,-8.821615E-2,-3.0073452E0,-3.5844728E-1,-1.4772658E-1,2.4655228E0,3.02688E0,-2.1202605E-2,1.3020997E0,5.001416E0,-7.604004E-1,7.207031E-1],"categories":[],"categories_nodes":[],"categories_segments":[],"categories_sizes":[],"default_left":[0,0,0,0,0,0,0,0,0,0,0,0,0,0,0,0,0,0,0,0,0,0,0,0,0,0,0,0,0,0,0,0,0,0,0,0,0,0,0],"id":28,"left_children":[1,3,5,7,9,-1,11,13,15,17,19,-1,-1,21,-1,23,-1,25,27,-1,-1,-1,-1,-1,29,31,33,35,37,-1,-1,-1,-1,-1,-1,-1,-1,-1,-1],"loss_changes":[7.113767E2,3.8401968E2,3.489671E2,1.8453607E2,2.9038046E2,0E0,8.696068E0,4.8633244E1,8.5063354E1,3.3818466E2,2.1365393E2,0E0,0E0,6.4367275E0,0E0,4.9981934E1,0E0,3.3184326E2,2.399205E2,0E0,0E0,0E0,0E0,0E0,4.814917E1,7.422337E2,1.7422456E3,4.890808E0,2.4368248E1,0E0,0E0,0E0,0E0,0E0,0E0,0E0,0E0,0E0,0E0],"parents":[2147483647,0,0,1,1,2,2,3,3,4,4,6,6,7,7,8,8,9,9,10,10,13,13,15,15,17,17,18,18,24,24,25,25,26,26,27,27,28,28],"right_children":[2,4,6,8,10,-1,12,14,16,18,20,-1,-1,22,-1,24,-1,26,28,-1,-1,-1,-1,-1,30,32,34,36,38,-1,-1,-1,-1,-1,-1,-1,-1,-1,-1],"split_conditions":[1.8388549E0,-1.6393946E0,1.7641318E0,-1.0059221E0,1.7542433E0,6.7374024E0,5.57719E-1,-1.6477499E0,-1.4483392E0,1.886343E0,1.8293873E0,4.0576175E-1,1.6233399E0,-1.6579611E0,1.4239014E0,-1.5407178E0,3.1948245E-1,3.6187717E-1,-3.0771494E-1,-4.71167E0,3.461426E-1,1.4139405E-1,-6.2590337E-1,-8.5332644E-1,-1.4207168E0,1.9278237E0,-1.1800317E-1,9.968229E-1,8.21717E-1,-3.0073452E0,-3.5844728E-1,-1.4772658E-1,2.4655228E0,3.02688E0,-2.1202605E-2,1.3020997E0,5.001416E0,-7.604004E-1,7.207031E-1],"split_indices":[2,6,0,12,2,0,4,0,8,7,0,0,0,0,0,7,0,11,11,0,0,0,0,0,0,4,12,0,0,0,0,0,0,0,0,0,0,0,0],"split_type":[0,0,0,0,0,0,0,0,0,0,0,0,0,0,0,0,0,0,0,0,0,0,0,0,0,0,0,0,0,0,0,0,0,0,0,0,0,0,0],"sum_hessian":[6.11E2,6.07E2,4E0,1.5E1,5.92E2,1E0,3E0,4E0,1.1E1,5.9E2,2E0,2E0,1E0,3E0,1E0,1E1,1E0,5.86E2,4E0,1E0,1E0,1E0,2E0,3E0,7E0,4.59E2,1.27E2,2E0,2E0,6E0,1E0,4.5E2,9E0,1.9E1,1.08E2,1E0,1E0,1E0,1E0],"tree_param":{"num_deleted":"0","num_feature":"14","num_nodes":"39","size_leaf_vector":"1"}},{"base_weights":[7.732356E-2,-5.429318E-3,1.0124609E1,-5.4352756E0,7.602742E-2,5.7268066E0,3.111084E0,-3.421631E-1,-6.9270267E0,2.1935695E-1,-2.973868E0,3.245117E-1,1.3798828E0,-4.4961915E0,4.935913E0,2.6633528E-1,-4.004883E0,-1.6333862E1,-6.23291E-1,-1.6411623E0,-6.0693365E-1,2.0791993E0,-1.5725099E-1,1.12892285E-1,5.601013E0,-5.735498E0,-1.1970704E0,-5.311011E0,8.890328E-1,1.5743974E-1,-5.856855E-1,5.496582E0,7.4250835E-1,-3.37959E0,7.749094E-1],"categories":[],"categories_nodes":[],"categories_segments":[],"categories_sizes":[],"default_left":[0,0,0,0,0,0,0,0,0,0,0,0,0,0,0,0,0,0,0,0,0,0,0,0,0,0,0,0,0,0,0,0,0,0,0],"id":29,"left_children":[1,3,5,7,9,-1,11,13,-1,15,17,-1,-1,19,21,23,-1,25,27,-1,-1,-1,-1,29,31,-1,-1,-1,33,-1,-1,-1,-1,-1,-1],"loss_changes":[5.088974E2,2.693302E2,2.5498383E2,8.0136096E2,2.6293637E2,0E0,7.1077003E0,1.9759505E2,0E0,3.6945016E2,8.37719E2,0E0,0E0,9.8069E-1,4.7198875E1,4.6840765E2,0E0,6.119507E1,6.3567346E2,0E0,0E0,0E0,0E0,4.756932E2,5.908996E2,0E0,0E0,0E0,5.0265527E2,0E0,0E0,0E0,0E0,0E0,0E0],"parents":[2147483647,0,0,1,1,2,2,3,3,4,4,6,6,7,7,9,9,10,10,13,13,14,14,15,15,17,17,18,18,23,23,24,24,28,28],"right_children":[2,4,6,8,10,-1,12,14,-1,16,18,-1,-1,20,22,24,-1,26,28,-1,-1,-1,-1,30,32,-1,-1,-1,34,-1,-1,-1,-1,-1,-1],"split_conditions":[1.8388549E0,-1.3376843E0,1.7641318E0,-8.137775E-1,2.3612707E0,5.7268066E0,5.57719E-1,-1.6625704E0,-6.9270267E0,1.7542433E0,-1.6041349E-1,3.245117E-1,1.3798828E0,-1.6393946E0,-1.3540814E0,1.3864974E0,-4.004883E0,1.0585468E0,-1.0490769E0,-1.6411623E0,-6.0693365E-1,2.0791993E0,-1.5725099E-1,8.717158E-1,1.1543818E0,-5.735498E0,-1.1970704E0,-5.311011E0,-1.8537577E-2,1.5743974E-1,-5.856855E-1,5.496582E0,7.4250835E-1,-3.37959E0,7.749094E-1],"split_indices":[2,4,0,1,13,0,4,1,0,2,10,0,0,6,4,3,0,4,2,0,0,0,0,0,9,0,0,0,4,0,0,0,0,0,0],"split_type":[0,0,0,0,0,0,0,0,0,0,0,0,0,0,0,0,0,0,0,0,0,0,0,0,0,0,0,0,0,0,0,0,0,0,0],"sum_hessian":[6.11E2,6.07E2,4E0,8E0,5.99E2,1E0,3E0,7E0,1E0,5.73E2,2.6E1,2E0,1E0,4E0,3E0,5.72E2,1E0,3E0,2.3E1,2E0,2E0,2E0,1E0,5.57E2,1.5E1,2E0,1E0,1E0,2.2E1,4.65E2,9.2E1,2E0,1.3E1,2E0,2E1],"tree_param":{"num_deleted":"0","num_feature":"14","num_nodes":"35","size_leaf_vector":"1"}},{"base_weights":[3.3262566E-2,-7.375156E-1,8.532378E-1,-4.6783304E-1,-5.1762695E0,-5.8007812E0,1.129444E0,-6.4386517E-1,7.7984624E0,-9.3751955E0,6.4344615E-2,-2.8061037E0,-1.9267578E0,3.5255275E0,9.3710005E-1,4.8143393E-1,-1.7723954E0,9.7492677E-1,-1.1139051E1,4.279785E0,-2.756673E0,7.757813E-1,-1.7366211E0,3.5477066E0,1.6990404E-1,-1.081543E-1,6.608533E0,-1.4696574E1,-6.3571036E-1,-5.512793E0,-4.3612504E0,3.413086E-2,1.6891602E0,5.502686E-1,-4.0416994E0,-7.009766E-1,1.0888673E0,8.106993E0,-1.2649231E0,1.2256445E1,-1.1196857E-1,-3.1210816E-1,3.1397586E0,-8.281758E0,-1.4373597E0,3.438843E0,-3.5301855E-1,-4.9152833E-1,-1.8215333E0,-1.4669678E0,-9.733887E-2,3.6571608E0,-3.504972E-1,7.841192E-1,-3.96828E0,1.2369142E0,4.891309E0,-1.60759E0,1.7260614E-1],"categories":[],"categories_nodes":[],"categories_segments":[],"categories_sizes":[],"default_left":[0,0,0,0,0,0,0,0,0,0,0,0,0,0,0,0,0,0,0,0,0,0,0,0,0,0,0,0,0,0,0,0,0,0,0,0,0,0,0,0,0,0,0,0,0,0,0,0,0,0,0,0,0,0,0,0,0,0,0],"id":30,"left_children":[1,3,5,7,9,11,13,15,-1,17,19,-1,21,-1,23,25,27,-1,29,31,33,35,-1,37,39,41,-1,43,45,47,-1,-1,-1,-1,49,-1,-1,51,53,55,57,-1,-1,-1,-1,-1,-1,-1,-1,-1,-1,-1,-1,-1,-1,-1,-1,-1,-1],"loss_changes":[3.874249E2,3.758476E2,5.5240247E2,1.409565E3,3.9669235E2,1.4714584E2,5.733251E2,3.7929364E2,0E0,2.5888525E2,1.1882446E2,0E0,7.755085E1,0E0,5.642E2,1.9079618E3,2.1795745E3,0E0,9.194275E1,2.1868378E1,4.2809963E1,5.2890812E1,0E0,1.4145529E3,7.474757E2,1.4598911E3,0E0,1.4021907E3,9.1677014E2,8.8038635E-1,0E0,0E0,0E0,0E0,1.4178093E1,0E0,0E0,1.2641558E3,1.519344E3,9.7392944E1,7.7840533E2,0E0,0E0,0E0,0E0,0E0,0E0,0E0,0E0,0E0,0E0,0E0,0E0,0E0,0E0,0E0,0E0,0E0,0E0],"parents":[2147483647,0,0,1,1,2,2,3,3,4,4,5,5,6,6,7,7,9,9,10,10,12,12,14,14,15,15,16,16,18,18,19,19,20,20,21,21,23,23,24,24,25,25,27,27,28,28,29,29,34,34,37,37,38,38,39,39,40,40],"right_children":[2,4,6,8,10,12,14,16,-1,18,20,-1,22,-1,24,26,28,-1,30,32,34,36,-1,38,40,42,-1,44,46,48,-1,-1,-1,-1,50,-1,-1,52,54,56,58,-1,-1,-1,-1,-1,-1,-1,-1,-1,-1,-1,-1,-1,-1,-1,-1,-1,-1],"split_conditions":[2.4409689E-1,1.3335569E0,-7.8541166E-1,1.1684879E0,-1.6694058E-1,8.281033E-1,-1.1212482E0,-9.173195E-1,7.7984624E0,-1.339439E0,-9.201654E-2,-2.8061037E0,-7.1121E-1,3.5255275E0,4.904157E-1,3.6836925E-1,-1.0124966E0,9.7492677E-1,-7.8389317E-1,-7.037367E-1,2.0209068E-1,6.594428E-1,-1.7366211E0,3.021947E-1,-2.3002632E-1,-9.922935E-1,6.608533E0,-8.94171E-1,-8.536285E-1,-1.493326E0,-4.3612504E0,3.413086E-2,1.6891602E0,5.502686E-1,8.7558365E-1,-7.009766E-1,1.0888673E0,1.072472E0,2.795452E-1,5.3697556E-1,5.8860175E-2,-3.1210816E-1,3.1397586E0,-8.281758E0,-1.4373597E0,3.438843E0,-3.5301855E-1,-4.9152833E-1,-1.8215333E0,-1.4669678E0,-9.733887E-2,3.6571608E0,-3.504972E-1,7.841192E-1,-3.96828E0,1.2369142E0,4.891309E0,-1.60759E0,1.7260614E-1],"split_indices":[1,11,11,11,3,7,13,6,0,2,0,0,12,0,6,11,7,0,9,6,4,1,0,12,7,6,0,6,6,7,0,0,0,0,4,0,0,13,6,0,7,0,0,0,0,0,0,0,0,0,0,0,0,0,0,0,0,0,0],"split_type":[0,0,0,0,0,0,0,0,0,0,0,0,0,0,0,0,0,0,0,0,0,0,0,0,0,0,0,0,0,0,0,0,0,0,0,0,0,0,0,0,0,0,0,0,0,0,0,0,0,0,0,0,0,0,0,0,0,0,0],"sum_hessian":[6.11E2,3.15E2,2.96E2,2.98E2,1.7E1,1.1E1,2.85E2,2.97E2,1E0,9E0,8E0,5E0,6E0,4E0,2.81E2,1.49E2,1.48E2,1E0,8E0,3E0,5E0,4E0,2E0,6.3E1,2.18E2,1.46E2,3E0,1.1E1,1.37E2,4E0,4E0,1E0,2E0,1E0,4E0,2E0,2E0,3.2E1,3.1E1,4E0,2.14E2,1.35E2,1.1E1,4E0,7E0,5E0,1.32E2,1E0,3E0,3E0,1E0,2.2E1,1E1,2.4E1,7E0,2E0,2E0,2.4E1,1.9E2],"tree_param":{"num_deleted":"0","num_feature":"14","num_nodes":"59","size_leaf_vector":"1"}},{"base_weights":[3.918896E-2,-2.9922888E-2,8.435351E0,1.0354625E-1,-2.905816E0,4.8418946E0,2.4743652E0,-2.5235677E-1,1.6858481E0,-1.29021E1,-1.118693E0,2.2509766E-1,1.1469727E0,-5.439755E-2,-1.1826172E1,1.4439724E1,5.09376E-1,-4.5178223E0,-9.645264E-1,-4.4614015E0,1.2582795E-1,-5.109094E-1,2.074813E0,-1.4179688E0,-6.5639653E0,2.0965494E1,1.0411377E0,-3.309396E0,1.9873793E0,-4.9752197E0,2.6684875E0,-5.920967E-2,-1.5735108E0,2.7799563E0,2.5421348E-1,-1.0132813E0,3.0429688E-1,-1.0193849E0,7.9553323E0,-1.2257813E0,1.2336427E0,4.8330325E-1,-4.162777E0,8.3376026E-1,-1.7286831E0,-2.1657925E0,1.6100098E0,-1.6744385E0,2.0777612E0],"categories":[],"categories_nodes":[],"categories_segments":[],"categories_sizes":[],"default_left":[0,0,0,0,0,0,0,0,0,0,0,0,0,0,0,0,0,0,0,0,0,0,0,0,0,0,0,0,0,0,0,0,0,0,0,0,0,0,0,0,0,0,0,0,0,0,0,0,0],"id":31,"left_children":[1,3,5,7,9,-1,11,13,15,17,19,-1,-1,21,23,25,27,-1,-1,-1,29,31,33,35,-1,37,39,41,43,45,47,-1,-1,-1,-1,-1,-1,-1,-1,-1,-1,-1,-1,-1,-1,-1,-1,-1,-1],"loss_changes":[3.553803E2,2.3367741E2,1.8969064E2,3.281764E2,4.679104E2,0E0,6.4333935E0,1.0899409E3,1.5981348E3,3.5174133E1,4.1264218E2,0E0,0E0,4.5693262E2,8.0610364E2,7.650969E2,5.653486E2,0E0,0E0,0E0,3.1159152E2,5.734106E2,7.2481793E2,2.7258003E1,0E0,9.0174194E2,7.978304E1,1.4781193E3,4.5783124E2,2.2440927E2,6.006275E2,0E0,0E0,0E0,0E0,0E0,0E0,0E0,0E0,0E0,0E0,0E0,0E0,0E0,0E0,0E0,0E0,0E0,0E0],"parents":[2147483647,0,0,1,1,2,2,3,3,4,4,6,6,7,7,8,8,9,9,10,10,13,13,14,14,15,15,16,16,20,20,21,21,22,22,23,23,25,25,26,26,27,27,28,28,29,29,30,30],"right_children":[2,4,6,8,10,-1,12,14,16,18,20,-1,-1,22,24,26,28,-1,-1,-1,30,32,34,36,-1,38,40,42,44,46,48,-1,-1,-1,-1,-1,-1,-1,-1,-1,-1,-1,-1,-1,-1,-1,-1,-1,-1],"split_conditions":[1.8388549E0,2.3612707E0,1.7641318E0,9.431061E-1,-1.6041349E-1,4.8418946E0,5.57719E-1,9.0882915E-1,9.712127E-1,1.0585468E0,-1.0490769E0,2.2509766E-1,1.1469727E0,5.267774E-1,6.6543007E-1,-3.2321844E-1,-5.000459E-1,-4.5178223E0,-9.645264E-1,-4.4614015E0,6.4434546E-1,9.1091126E-1,-4.5666695E-1,6.961118E-1,-6.5639653E0,8.439203E-1,-3.853483E-1,-4.8012573E-1,1.3985407E0,1.8374745E0,-7.4839246E-1,-5.920967E-2,-1.5735108E0,2.7799563E0,2.5421348E-1,-1.0132813E0,3.0429688E-1,-1.0193849E0,7.9553323E0,-1.2257813E0,1.2336427E0,4.8330325E-1,-4.162777E0,8.3376026E-1,-1.7286831E0,-2.1657925E0,1.6100098E0,-1.6744385E0,2.0777612E0],"split_indices":[2,13,0,7,10,0,4,7,7,4,2,0,0,12,0,11,11,0,0,0,4,5,13,6,0,10,4,4,6,6,9,0,0,0,0,0,0,0,0,0,0,0,0,0,0,0,0,0,0],"split_type":[0,0,0,0,0,0,0,0,0,0,0,0,0,0,0,0,0,0,0,0,0,0,0,0,0,0,0,0,0,0,0,0,0,0,0,0,0,0,0,0,0,0,0,0,0,0,0,0,0],"sum_hessian":[6.11E2,6.07E2,4E0,5.81E2,2.6E1,1E0,3E0,4.75E2,1.06E2,3E0,2.3E1,2E0,1E0,4.68E2,7E0,8E0,9.8E1,2E0,1E0,1E0,2.2E1,3.86E2,8.2E1,4E0,3E0,5E0,3E0,2.7E1,7.1E1,7E0,1.5E1,3.63E2,2.3E1,1.1E1,7.1E1,2E0,2E0,1E0,4E0,1E0,2E0,1.9E1,8E0,6.5E1,6E0,6E0,1E0,5E0,1E1],"tree_param":{"num_deleted":"0","num_feature":"14","num_nodes":"49","size_leaf_vector":"1"}},{"base_weights":[1.5406789E-2,-4.3776333E-1,1.0015002E0,-4.4357937E-2,-4.508842E0,1.1057918E1,2.7368298E-1,-3.4326494E-1,1.6102957E1,-1.7835938E1,-2.3529534E0,5.383789E0,5.71793E0,-4.096924E0,8.729309E-1,-7.06346E-2,-4.751709E0,5.403809E-1,5.455909E0,-7.747461E0,-3.9016926E0,-4.2094183E0,5.1438336E0,2.5128906E0,-4.5092773E-1,4.8899198E0,-9.581543E0,5.7845635E0,-1.6766036E-1,-1.812727E-1,1.3045085E1,-9.821094E0,-3.0795627E0,-1.8902345E0,1.3447267E-1,-5.3860154E0,2.0996094E0,3.12605E0,-1.418457E0,1.2912598E0,-1.041211E0,-7.9125977E-1,3.6567628E0,-7.238965E0,-3.4201882E0,4.5247397E-1,1.9058228E1,-5.8041506E0,7.326889E-1,3.169128E-1,-2.4058299E-1,6.6375737E0,-7.6728517E-1,-8.3474123E-1,-3.2655396E0,1.4790528E0,-1.1522204E0,-9.131543E-1,-3.688672E0,5.759766E-1,-1.7150391E0,-4.0819338E-1,3.083496E-1,4.8237306E-1,-2.3634768E0,2.6489062E0,-6.114086E-1,6.6775117E0,-5.01416E-1,2.7669191E0,-4.3314308E-2],"categories":[],"categories_nodes":[],"categories_segments":[],"categories_sizes":[],"default_left":[0,0,0,0,0,0,0,0,0,0,0,0,0,0,0,0,0,0,0,0,0,0,0,0,0,0,0,0,0,0,0,0,0,0,0,0,0,0,0,0,0,0,0,0,0,0,0,0,0,0,0,0,0,0,0,0,0,0,0,0,0,0,0,0,0,0,0,0,0,0,0],"id":32,"left_children":[1,3,5,7,9,11,13,15,17,19,21,23,-1,25,27,29,31,-1,-1,-1,33,35,37,-1,39,41,43,45,47,49,51,53,55,-1,-1,57,-1,-1,59,-1,-1,61,-1,-1,63,65,67,-1,69,-1,-1,-1,-1,-1,-1,-1,-1,-1,-1,-1,-1,-1,-1,-1,-1,-1,-1,-1,-1,-1,-1],"loss_changes":[2.739217E2,6.7246533E2,1.4095858E3,1.8589211E3,1.021107E3,4.8763196E2,4.7762924E2,4.5397336E2,1.758147E2,4.558379E2,4.809308E2,1.609213E2,0E0,1.1312201E3,8.187302E2,5.2040674E2,1.5624396E2,0E0,0E0,0E0,3.4131912E1,3.9375595E2,2.5715436E2,0E0,7.237626E1,3.8286194E2,1.172396E3,1.9731147E3,2.3108535E3,2.7354825E2,4.8161298E2,7.15921E0,1.2867761E2,0E0,0E0,3.671577E2,0E0,0E0,6.837375E1,0E0,0E0,7.6130943E0,0E0,0E0,2.5923914E2,4.5612805E2,5.679043E2,0E0,9.5450305E2,0E0,0E0,0E0,0E0,0E0,0E0,0E0,0E0,0E0,0E0,0E0,0E0,0E0,0E0,0E0,0E0,0E0,0E0,0E0,0E0,0E0,0E0],"parents":[2147483647,0,0,1,1,2,2,3,3,4,4,5,5,6,6,7,7,8,8,9,9,10,10,11,11,13,13,14,14,15,15,16,16,20,20,21,21,22,22,24,24,25,25,26,26,27,27,28,28,29,29,30,30,31,31,32,32,35,35,38,38,41,41,44,44,45,45,46,46,48,48],"right_children":[2,4,6,8,10,12,14,16,18,20,22,24,-1,26,28,30,32,-1,-1,-1,34,36,38,-1,40,42,44,46,48,50,52,54,56,-1,-1,58,-1,-1,60,-1,-1,62,-1,-1,64,66,68,-1,70,-1,-1,-1,-1,-1,-1,-1,-1,-1,-1,-1,-1,-1,-1,-1,-1,-1,-1,-1,-1,-1,-1],"split_conditions":[6.9938856E-1,5.8239883E-1,7.234562E-1,5.5612224E-1,5.4245764E-1,7.4159867E-1,7.145512E-1,1.3335569E0,3.264117E-2,5.9209895E-1,9.113162E-1,7.129145E-1,5.71793E0,6.48315E-1,8.195063E-1,1.2232976E0,-1.0180197E0,5.403809E-1,5.455909E0,-7.747461E0,4.7943512E-1,8.274479E-1,5.842678E-1,2.5128906E0,7.006733E-1,5.342978E-1,7.102103E-1,7.862655E-1,8.3744085E-1,-6.2169147E-1,-7.168186E-1,-1.493326E0,-9.6328866E-1,-1.8902345E0,1.3447267E-1,7.513291E-1,2.0996094E0,3.12605E0,7.154576E-1,1.2912598E0,-1.041211E0,1.1536545E0,3.6567628E0,-7.238965E0,7.692154E-1,7.437716E-1,9.7685677E-1,-5.8041506E0,5.653276E-1,3.169128E-1,-2.4058299E-1,6.6375737E0,-7.6728517E-1,-8.3474123E-1,-3.2655396E0,1.4790528E0,-1.1522204E0,-9.131543E-1,-3.688672E0,5.759766E-1,-1.7150391E0,-4.0819338E-1,3.083496E-1,4.8237306E-1,-2.3634768E0,2.6489062E0,-6.114086E-1,6.6775117E0,-5.01416E-1,2.7669191E0,-4.3314308E-2],"split_indices":[9,3,9,3,0,6,3,11,6,1,12,9,0,0,3,11,3,0,0,0,0,0,4,0,0,0,0,3,3,11,0,7,7,0,0,1,0,0,0,0,0,7,0,0,6,9,0,0,10,0,0,0,0,0,0,0,0,0,0,0,0,0,0,0,0,0,0,0,0,0,0],"split_type":[0,0,0,0,0,0,0,0,0,0,0,0,0,0,0,0,0,0,0,0,0,0,0,0,0,0,0,0,0,0,0,0,0,0,0,0,0,0,0,0,0,0,0,0,0,0,0,0,0,0,0,0,0,0,0,0,0,0,0,0,0,0,0,0,0,0,0,0,0,0,0],"sum_hessian":[6.11E2,4.19E2,1.92E2,3.83E2,3.6E1,1.2E1,1.8E2,3.77E2,6E0,4E0,3.2E1,8E0,4E0,2.1E1,1.59E2,3.56E2,2.1E1,1E0,5E0,2E0,2E0,2.6E1,6E0,5E0,3E0,8E0,1.3E1,2.7E1,1.32E2,3.54E2,2E0,4E0,1.7E1,1E0,1E0,2.4E1,2E0,3E0,3E0,1E0,2E0,5E0,3E0,3E0,1E1,2E1,7E0,5E0,1.27E2,1.18E2,2.36E2,1E0,1E0,1E0,3E0,1E0,1.6E1,1.9E1,5E0,2E0,1E0,4E0,1E0,5E0,5E0,4E0,1.6E1,6E0,1E0,1.1E1,1.16E2],"tree_param":{"num_deleted":"0","num_feature":"14","num_nodes":"71","size_leaf_vector":"1"}},{"base_weights":[2.0842109E-2,-3.8870562E-2,7.2777343E0,-2.9074903E0,8.39965E-2,2.2270508E0,4.1220703E0,1.2995911E0,-4.615777E0,5.5165405E0,8.529689E-3,1.036084E0,6.669922E-1,-2.3959148E0,2.4772217E0,-1.0983851E1,-5.1641846E-1,7.4973145E0,-1.2523316E0,-2.4531047E0,2.3145406E-1,2.4711914E-1,5.3027347E-2,1.04736336E-1,-9.044239E-1,-1.8240967E-1,-1.2611816E1,3.052002E0,-2.524878E0,2.4745607E0,4.4849855E-1,-5.5051E-1,-7.533128E0,1.0291713E1,9.661958E-2,-8.8337404E-1,-4.1869044E0,-6.845215E-1,1.8297485E0,2.3237183E0,-4.6182975E-1,1.1802735E0,-2.9927292E0,-2.1877442E-1,3.6750245E0,-8.964728E-1,1.0113874E-1],"categories":[],"categories_nodes":[],"categories_segments":[],"categories_sizes":[],"default_left":[0,0,0,0,0,0,0,0,0,0,0,0,0,0,0,0,0,0,0,0,0,0,0,0,0,0,0,0,0,0,0,0,0,0,0,0,0,0,0,0,0,0,0,0,0,0,0],"id":33,"left_children":[1,3,5,7,9,11,-1,13,15,17,19,-1,21,23,-1,25,27,29,-1,31,33,-1,-1,-1,-1,-1,35,37,-1,-1,-1,39,41,43,45,-1,-1,-1,-1,-1,-1,-1,-1,-1,-1,-1,-1],"loss_changes":[2.654799E2,2.145392E2,1.326E2,1.8567116E2,2.3937936E2,5.350506E0,0E0,2.254852E2,4.6421814E2,1.8486217E2,3.172013E2,0E0,8.4914684E-2,1.1244797E1,0E0,1.1057184E2,3.6396588E2,1.9231964E1,0E0,4.5978378E2,7.1793463E2,0E0,0E0,0E0,0E0,0E0,3.6891907E1,1.6019153E2,0E0,0E0,0E0,3.072801E2,4.03385E2,1.6001501E2,3.8978336E2,0E0,0E0,0E0,0E0,0E0,0E0,0E0,0E0,0E0,0E0,0E0,0E0],"parents":[2147483647,0,0,1,1,2,2,3,3,4,4,5,5,7,7,8,8,9,9,10,10,12,12,13,13,15,15,16,16,17,17,19,19,20,20,26,26,27,27,31,31,32,32,33,33,34,34],"right_children":[2,4,6,8,10,12,-1,14,16,18,20,-1,22,24,-1,26,28,30,-1,32,34,-1,-1,-1,-1,-1,36,38,-1,-1,-1,40,42,44,46,-1,-1,-1,-1,-1,-1,-1,-1,-1,-1,-1,-1],"split_conditions":[1.9548339E0,-1.6856792E0,1.1011698E0,-1.6022522E0,-9.0411896E-1,1.8948491E0,4.1220703E0,-1.6115873E0,-7.31218E-1,-9.703947E-1,-7.8541166E-1,1.036084E0,1.5206336E0,-1.6579611E0,2.4772217E0,-1.098263E0,-1.4487582E0,-1.0043006E0,-1.2523316E0,-5.6927997E-1,-7.7821714E-1,2.4711914E-1,5.3027347E-2,1.04736336E-1,-9.044239E-1,-1.8240967E-1,-1.6698056E0,-1.5508494E0,-2.524878E0,2.4745607E0,4.4849855E-1,-1.3321909E0,-7.891265E-1,-1.2743022E0,-1.4514501E0,-8.8337404E-1,-4.1869044E0,-6.845215E-1,1.8297485E0,2.3237183E0,-4.6182975E-1,1.1802735E0,-2.9927292E0,-2.1877442E-1,3.6750245E0,-8.964728E-1,1.0113874E-1],"split_indices":[3,10,4,1,11,1,0,0,12,4,11,0,0,0,0,12,3,13,0,13,11,0,0,0,0,0,0,2,0,0,0,13,12,4,7,0,0,0,0,0,0,0,0,0,0,0,0],"split_type":[0,0,0,0,0,0,0,0,0,0,0,0,0,0,0,0,0,0,0,0,0,0,0,0,0,0,0,0,0,0,0,0,0,0,0,0,0,0,0,0,0,0,0,0,0,0,0],"sum_hessian":[6.11E2,6.07E2,4E0,2.4E1,5.83E2,3E0,1E0,7E0,1.7E1,7E0,5.76E2,1E0,2E0,5E0,2E0,6E0,1.1E1,6E0,1E0,4.7E1,5.29E2,1E0,1E0,1E0,4E0,1E0,5E0,8E0,3E0,5E0,1E0,3.5E1,1.2E1,6E0,5.23E2,1E0,4E0,3E0,5E0,3E0,3.2E1,2E0,1E1,1E0,5E0,3.7E1,4.86E2],"tree_param":{"num_deleted":"0","num_feature":"14","num_nodes":"47",